// This file is computer-generated by onnx2c 
// (TODO: add creating command line here)
// (TODO: print creation date here )

// ONNX model:
// produced by keras2onnx, version 1.7.0
// ONNX IR version: 11
// Model documentation: 
/*

*/

#include <float.h>
#include <math.h>
#include <stdbool.h>
#include <stdint.h>
#include <string.h>
#define MAX(X,Y) ( X > Y ? X : Y)
#define MIN(X,Y) ( X < Y ? X : Y)
#define CLIP(X,L) ( MAX(MIN(X,L), -L) )

static const float tensor_dense_kernel_0[164][20] = 
{
  {-0.017395218834280967712f, -0.11721687763929367065f, -0.82128852605819702148f, -0.34848293662071228027f, -0.39267134666442871094f, 0.77289086580276489258f, -1.4554876089096069336f, -0.37164521217346191406f, 0.24686004221439361572f, -1.1382623910903930664f, -1.3329340219497680664f, -0.079280734062194824219f, -3.7700548171997070312f, 1.8721083402633666992f, -0.051366943866014480591f, -0.064058117568492889404f, -0.31876417994499206543f, -0.39972206950187683105f, -0.85684692859649658203f, -0.20380595326423645020f},
  {-0.12711533904075622559f, -0.44414484500885009766f, 1.2474836111068725586f, -0.20233279466629028320f, 1.2338751554489135742f, 0.81331688165664672852f, -0.38860148191452026367f, 0.074378319084644317627f, 0.10475905984640121460f, -0.39844343066215515137f, -0.10454147309064865112f, 1.0251677036285400391f, -0.29422315955162048340f, 0.11097100377082824707f, -0.31180575489997863770f, -0.21397687494754791260f, -0.20701457560062408447f, -0.35868221521377563477f, 0.49933376908302307129f, 0.20400761067867279053f},
  {-0.24442632496356964111f, -0.11071518808603286743f, -0.0089756771922111511230f, -0.12582422792911529541f, -0.18469837307929992676f, -0.40922188758850097656f, 0.68277823925018310547f, -0.10378558933734893799f, -0.14255002140998840332f, 0.11207132041454315186f, -0.0095908315852284431458f, 0.52091747522354125977f, 0.19781094789505004883f, -0.15705703198909759521f, 0.53040641546249389648f, -0.30695587396621704102f, 0.021114772185683250427f, 0.29176035523414611816f, -0.29810899496078491211f, -0.070221200585365295410f},
  {-0.14633123576641082764f, -0.098871074616909027100f, -0.55542927980422973633f, -0.70142948627471923828f, -1.5141081809997558594f, 0.35034883022308349609f, -0.54971450567245483398f, 0.55578887462615966797f, -0.85141038894653320312f, 0.0085715567693114280701f, 0.0023286023642867803574f, 0.63597756624221801758f, 2.7212636470794677734f, 0.61881512403488159180f, -1.2840397357940673828f, -0.35979187488555908203f, -0.56854850053787231445f, -0.42166152596473693848f, -0.68135190010070800781f, 0.44452926516532897949f},
  {0.46617352962493896484f, 0.65717792510986328125f, -1.9474753141403198242f, 0.062049049884080886841f, -2.0152304172515869141f, 0.35251003503799438477f, -2.8570623397827148438f, 0.68694573640823364258f, -1.5809082984924316406f, -1.4282734394073486328f, -0.49445390701293945312f, -0.10464283823966979980f, 0.035321056842803955078f, 0.22530454397201538086f, -0.79812139272689819336f, 0.32976549863815307617f, -1.0427637100219726562f, -1.4108490943908691406f, 0.17875514924526214600f, 0.34329465031623840332f},
  {-1.1081475019454956055f, -1.5321735143661499023f, -1.0460274219512939453f, -1.5871971845626831055f, 0.32519152760505676270f, 4.7665605545043945312f, -1.6090056896209716797f, -0.78582352399826049805f, -1.6461380720138549805f, -1.1532797813415527344f, -0.48708230257034301758f, 0.58954215049743652344f, 6.4206228256225585938f, -0.87680190801620483398f, -0.98940843343734741211f, -1.5616270303726196289f, -1.6690424680709838867f, -0.44690316915512084961f, -1.1936484575271606445f, -1.2175256013870239258f},
  {1.1677345037460327148f, 1.5441710948944091797f, 0.10552637279033660889f, 1.3904459476470947266f, 3.7974841594696044922f, -9.3508520126342773438f, 1.2290797233581542969f, 1.6948733329772949219f, 1.7287958860397338867f, 1.2165292501449584961f, 2.6745769977569580078f, 1.3201812505722045898f, 2.2130548954010009766f, 2.1652669906616210938f, 1.4241192340850830078f, 1.5360316038131713867f, 1.5232391357421875000f, 1.0377131700515747070f, 1.8622502088546752930f, 1.5115542411804199219f},
  {0.076033212244510650635f, -0.69648927450180053711f, 0.47974675893783569336f, -0.91169846057891845703f, 0.95775294303894042969f, 2.5759270191192626953f, 2.5018563270568847656f, -0.17733637988567352295f, -2.4694063663482666016f, -2.0430407524108886719f, -2.0344073772430419922f, -1.1119226217269897461f, -3.3846604824066162109f, -2.1839933395385742188f, 1.1913601160049438477f, 0.65341663360595703125f, -0.23427499830722808838f, -0.78060352802276611328f, -1.6951918601989746094f, -2.1565852165222167969f},
  {0.093165680766105651855f, 0.22445872426033020020f, 0.46184787154197692871f, -0.057889349758625030518f, -1.2473409175872802734f, 0.018506649881601333618f, -2.5157957077026367188f, 0.17810687422752380371f, 0.18519094586372375488f, -0.99984723329544067383f, 0.52044886350631713867f, -0.21258050203323364258f, -0.84422087669372558594f, 0.15960183739662170410f, 0.36233186721801757812f, 0.13083031773567199707f, -0.054906893521547317505f, -1.4956219196319580078f, 0.34910866618156433105f, 0.46356827020645141602f},
  {1.0325424671173095703f, -0.26993635296821594238f, -0.38849636912345886230f, 2.2246510982513427734f, 0.57411700487136840820f, -0.22680686414241790771f, 2.0334057807922363281f, -0.92305070161819458008f, -0.51277935504913330078f, 0.66524362564086914062f, -0.45124551653861999512f, 0.31803420186042785645f, 0.061174366623163223267f, -0.082656122744083404541f, -1.0681594610214233398f, 0.064756907522678375244f, 2.4352164268493652344f, -0.43849974870681762695f, -0.13920855522155761719f, -0.41241824626922607422f},
  {0.30267441272735595703f, 0.25974369049072265625f, 0.48969003558158874512f, 0.31177267432212829590f, -0.17815591394901275635f, -0.12121441960334777832f, 0.033095736056566238403f, 0.23033857345581054688f, 0.44344189763069152832f, -0.47610110044479370117f, -0.19480627775192260742f, -0.0086303343996405601501f, -0.020068127661943435669f, 0.054562296718358993530f, -0.27829682826995849609f, 0.59267836809158325195f, 0.15227566659450531006f, -0.34981852769851684570f, 0.54017430543899536133f, -0.49313804507255554199f},
  {0.34390452504158020020f, 0.21118588745594024658f, -0.013359501957893371582f, 0.36234614253044128418f, -0.44947335124015808105f, 0.19170087575912475586f, -0.88424861431121826172f, 0.34449553489685058594f, 0.41274651885032653809f, 0.54854923486709594727f, -1.1030749082565307617f, -2.1466517448425292969f, -1.0800399780273437500f, 0.015571828000247478485f, -1.2402517795562744141f, 0.16219627857208251953f, 0.27954536676406860352f, 0.30543670058250427246f, -0.93175053596496582031f, 0.30532768368721008301f},
  {-0.51244443655014038086f, 0.21167451143264770508f, 0.34259262681007385254f, 0.31697383522987365723f, -1.4119402170181274414f, -0.50107729434967041016f, -0.45402124524116516113f, 0.15442416071891784668f, -0.072881981730461120605f, -0.22509638965129852295f, -0.13981789350509643555f, 0.56578898429870605469f, 0.081338591873645782471f, 0.92813646793365478516f, 1.5847169160842895508f, 0.14399033784866333008f, -0.23076899349689483643f, 0.15219758450984954834f, 0.59066110849380493164f, 0.62491846084594726562f},
  {1.0839946269989013672f, -1.3218508958816528320f, -0.28945678472518920898f, 0.79178547859191894531f, -1.8283529281616210938f, 0.26102858781814575195f, 1.2475804090499877930f, -1.0204101800918579102f, 0.64844900369644165039f, 0.43986093997955322266f, -1.3388942480087280273f, 0.30554899573326110840f, 0.47900548577308654785f, 0.30253550410270690918f, -0.81388670206069946289f, 0.67891097068786621094f, 0.66144073009490966797f, -2.1891601085662841797f, -2.4485313892364501953f, -1.3710486888885498047f},
  {2.6976633071899414062f, 0.58617323637008666992f, 0.79732877016067504883f, 1.9512158632278442383f, -1.9551932811737060547f, -1.1730381250381469727f, -0.32857313752174377441f, 1.8181080818176269531f, -0.60978549718856811523f, -1.6779011487960815430f, -2.4251110553741455078f, -1.4161899089813232422f, 2.3078627586364746094f, 0.12507136166095733643f, -0.37765368819236755371f, 2.7389874458312988281f, 0.76686608791351318359f, -0.58457571268081665039f, -0.39359551668167114258f, -0.047737017273902893066f},
  {0.26640662550926208496f, -0.49406909942626953125f, -1.5002397298812866211f, -0.019812105223536491394f, 0.061441905796527862549f, 0.57052046060562133789f, 0.52964353561401367188f, 0.0013815273996442556381f, 0.23464848101139068604f, -0.10174155980348587036f, 0.14517666399478912354f, -0.62523150444030761719f, -3.7220497131347656250f, -3.4540827274322509766f, -0.71966642141342163086f, -0.38000652194023132324f, 0.45817014575004577637f, -0.18201202154159545898f, -0.64357316493988037109f, -0.68477827310562133789f},
  {0.21685782074928283691f, 0.23566861450672149658f, 0.12727312743663787842f, -0.30079597234725952148f, -0.23917254805564880371f, -0.43824723362922668457f, -0.52618992328643798828f, 0.19421187043190002441f, -0.092601545155048370361f, -0.15341970324516296387f, 0.81047946214675903320f, 2.9072139263153076172f, 0.65508288145065307617f, -0.60796868801116943359f, 1.3460623025894165039f, 0.0064280275255441665649f, -0.47908231616020202637f, 2.7054255008697509766f, 0.86726683378219604492f, 0.55494964122772216797f},
  {-0.33959993720054626465f, 0.16041342914104461670f, -0.74515038728713989258f, 0.30275812745094299316f, -0.23136411607265472412f, 0.28143936395645141602f, 0.27575343847274780273f, -0.39772069454193115234f, -0.27920958399772644043f, 0.47859320044517517090f, -0.20403060317039489746f, -0.61650753021240234375f, -0.31452170014381408691f, 0.051262911409139633179f, -0.071156673133373260498f, 0.24433763325214385986f, 0.035037439316511154175f, -0.25182694196701049805f, -0.27908495068550109863f, -0.28553164005279541016f},
  {-0.12134525179862976074f, -0.26846346259117126465f, 0.45963951945304870605f, -0.45396474003791809082f, 0.015894928947091102600f, 0.20694372057914733887f, -0.31632256507873535156f, 1.0201096534729003906f, 1.6117357015609741211f, -0.95068299770355224609f, 1.2561603784561157227f, -0.31703492999076843262f, -3.1448519229888916016f, 1.0827790498733520508f, -0.39771756529808044434f, 0.16188263893127441406f, -1.2265692949295043945f, 0.28873983025550842285f, 0.46932387351989746094f, -0.19728560745716094971f},
  {-0.29645457863807678223f, -0.15642519295215606689f, -0.56683015823364257812f, -0.039451923221349716187f, 0.15057758986949920654f, 0.76728630065917968750f, 0.070544488728046417236f, -0.54791331291198730469f, -0.21641272306442260742f, -0.57040190696716308594f, -0.26800006628036499023f, -0.14439043402671813965f, 0.71695488691329956055f, 0.92538297176361083984f, 0.017359279096126556396f, -0.33115923404693603516f, 0.071319691836833953857f, -0.82012468576431274414f, -0.21084472537040710449f, -0.48494917154312133789f},
  {0.093241237103939056396f, -0.46254578232765197754f, 0.42522436380386352539f, -0.28630325198173522949f, -0.24737899005413055420f, 0.97518599033355712891f, -1.8634818792343139648f, -0.21646554768085479736f, -0.18404142558574676514f, -0.41010373830795288086f, -0.28514918684959411621f, 0.78182870149612426758f, -1.4183715581893920898f, -1.1985465288162231445f, -1.6383025646209716797f, 0.21366067230701446533f, -0.80505186319351196289f, -1.2868552207946777344f, -0.87368518114089965820f, 0.10483858734369277954f},
  {0.19787292182445526123f, -0.35937422513961791992f, 0.13791929185390472412f, -0.056870378553867340088f, -0.26395612955093383789f, -0.068333409726619720459f, 0.37569016218185424805f, -0.12863309681415557861f, 0.26261636614799499512f, 0.45155605673789978027f, -0.28564813733100891113f, 0.011257568374276161194f, 0.45868456363677978516f, 0.18490652740001678467f, -0.17310108244419097900f, -0.036830909550189971924f, -0.28860846161842346191f, 0.059829205274581909180f, 0.19810450077056884766f, -0.22597393393516540527f},
  {0.57456159591674804688f, -0.0015872117364779114723f, -0.94412982463836669922f, 0.28967401385307312012f, -0.016867224127054214478f, -0.22269092500209808350f, 0.58879071474075317383f, -0.32945257425308227539f, 1.0652244091033935547f, 1.3983917236328125000f, 0.22970436513423919678f, 0.13975688815116882324f, -0.43563830852508544922f, 0.74467051029205322266f, -0.20156264305114746094f, -0.29420149326324462891f, -0.52255094051361083984f, -0.016082575544714927673f, -0.098896086215972900391f, 0.099548563361167907715f},
  {-1.4485082626342773438f, -1.9825756549835205078f, -0.86399227380752563477f, -2.0792274475097656250f, 0.86529630422592163086f, 0.28715577721595764160f, 1.8091928958892822266f, 0.57457798719406127930f, -0.17194180190563201904f, -0.52434277534484863281f, 0.96611130237579345703f, 1.5657638311386108398f, -0.79519551992416381836f, 0.85241472721099853516f, 1.5553089380264282227f, 1.3425215482711791992f, 1.1603128910064697266f, -0.37750199437141418457f, 0.31173056364059448242f, 0.32728618383407592773f},
  {-0.48403033614158630371f, 0.29198029637336730957f, 0.10638801753520965576f, -0.33736410737037658691f, -0.038111522793769836426f, -0.082651726901531219482f, 0.50560963153839111328f, -0.44105410575866699219f, 0.27363154292106628418f, -0.40911957621574401855f, -0.18611383438110351562f, -1.2173520326614379883f, 1.0954093933105468750f, 0.17552480101585388184f, -1.9514900445938110352f, 0.11088266968727111816f, 0.89893436431884765625f, 0.23498521745204925537f, -0.061613071709871292114f, -0.18937629461288452148f},
  {-0.29019889235496520996f, 0.42529293894767761230f, 1.4573673009872436523f, 1.1234251260757446289f, 2.1186649799346923828f, 0.091167844831943511963f, -0.60500943660736083984f, 0.60759180784225463867f, -1.3438168764114379883f, 0.22199241816997528076f, 1.3847470283508300781f, -0.88591915369033813477f, -0.87572228908538818359f, 0.26677891612052917480f, 0.12436185032129287720f, -0.55580979585647583008f, 0.38922497630119323730f, 0.25360533595085144043f, 0.47967851161956787109f, -0.58556878566741943359f},
  {0.11793071031570434570f, 0.39152041077613830566f, -1.0845192670822143555f, 0.80938917398452758789f, 0.93672490119934082031f, -0.78799480199813842773f, -0.23854020237922668457f, -0.45902022719383239746f, 0.064715646207332611084f, -0.064560785889625549316f, -0.31519559025764465332f, -0.43697574734687805176f, 0.65241402387619018555f, -0.50289124250411987305f, 0.70406210422515869141f, 0.20101587474346160889f, 0.27324897050857543945f, -0.69336020946502685547f, -0.17419376969337463379f, -0.58877438306808471680f},
  {-0.77222836017608642578f, -0.87899935245513916016f, -0.87084925174713134766f, -0.51696670055389404297f, 3.2938563823699951172f, -0.34469681978225708008f, 2.9043967723846435547f, -0.56131619215011596680f, 0.54147392511367797852f, 1.4409198760986328125f, 0.67837113142013549805f, 0.29722484946250915527f, 3.1870656013488769531f, 0.68425428867340087891f, 2.0711078643798828125f, -0.39041170477867126465f, -0.48972469568252563477f, 2.7178440093994140625f, 0.46424701809883117676f, -0.071295283734798431396f},
  {0.45438092947006225586f, 0.65893584489822387695f, -2.6063272953033447266f, 0.46746748685836791992f, 0.62102621793746948242f, -2.3155605792999267578f, 0.86572986841201782227f, 0.27226281166076660156f, -0.69954460859298706055f, 0.20015428960323333740f, -0.55231374502182006836f, -0.48975425958633422852f, -3.6386513710021972656f, -2.0004911422729492188f, -1.4480648040771484375f, 1.0685250759124755859f, -0.23993784189224243164f, -0.38438925147056579590f, 0.40373757481575012207f, -0.022867986932396888733f},
  {0.12892268598079681396f, -0.14948986470699310303f, -0.70229232311248779297f, 0.47798967361450195312f, 2.0482392311096191406f, 0.071499586105346679688f, 1.9977295398712158203f, 0.034327059984207153320f, -0.29293319582939147949f, 1.9563744068145751953f, -0.23145140707492828369f, -0.33929562568664550781f, -0.46156960725784301758f, 1.4130008220672607422f, -0.49028673768043518066f, -0.17532169818878173828f, 0.81047701835632324219f, 0.41359689831733703613f, -0.18699845671653747559f, -0.68771016597747802734f},
  {-0.039046116173267364502f, 0.0044574765488505363464f, 0.093107596039772033691f, -0.062404792755842208862f, -0.53528994321823120117f, -0.27442139387130737305f, 0.18168699741363525391f, -0.034600060433149337769f, -0.33482640981674194336f, 0.034288715571165084839f, 0.026880946010351181030f, 0.38490074872970581055f, 0.58584123849868774414f, -0.44491761922836303711f, 0.36593273282051086426f, 0.055069934576749801636f, 0.38432359695434570312f, -0.36774742603302001953f, 0.17775093019008636475f, -0.11083708703517913818f},
  {0.25058344006538391113f, -1.9776750802993774414f, 1.4484622478485107422f, -0.78620195388793945312f, -0.57683336734771728516f, 2.1713624000549316406f, -0.81723475456237792969f, -1.2384488582611083984f, -1.1406979560852050781f, -1.8310554027557373047f, 3.0426928997039794922f, -4.2342233657836914062f, -4.0734810829162597656f, -2.1397004127502441406f, -2.6579954624176025391f, 0.063787840306758880615f, -0.45151644945144653320f, -1.0181180238723754883f, -1.0060651302337646484f, -2.5664348602294921875f},
  {-0.025702109560370445251f, -0.21668933331966400146f, 0.36327862739562988281f, 0.072475500404834747314f, -0.97344177961349487305f, 0.59536617994308471680f, 0.27979165315628051758f, -0.75587290525436401367f, -0.34191480278968811035f, 0.42456391453742980957f, -0.46299973130226135254f, -0.86009490489959716797f, -0.0046360474079847335815f, 0.76249045133590698242f, -0.59805446863174438477f, 0.045797415077686309814f, -0.062238723039627075195f, 0.11569419503211975098f, -0.22567492723464965820f, -0.53405910730361938477f},
  {-0.12471825629472732544f, -0.29761782288551330566f, -1.4862499237060546875f, -0.020336478948593139648f, -1.3924053907394409180f, 0.25980326533317565918f, 0.046267971396446228027f, -0.40900138020515441895f, -0.052319560199975967407f, -1.3268088102340698242f, 0.17259681224822998047f, -1.8326133489608764648f, 2.3282613754272460938f, 0.16710224747657775879f, 0.31058400869369506836f, 0.53042364120483398438f, -0.37394592165946960449f, -1.9378126859664916992f, -0.30963444709777832031f, 0.31096580624580383301f},
  {1.5242905616760253906f, 1.7780303955078125000f, 1.3143208026885986328f, 2.1314194202423095703f, -0.72966408729553222656f, -3.0937530994415283203f, 0.26238843798637390137f, -0.74069732427597045898f, 0.78307735919952392578f, 0.79442721605300903320f, 0.25898107886314392090f, 0.94458937644958496094f, 1.3569474220275878906f, -2.0619735717773437500f, 0.13037300109863281250f, 1.8242964744567871094f, -0.58536082506179809570f, 0.31800648570060729980f, 0.65229433774948120117f, -0.15024156868457794189f},
  {-1.9375394582748413086f, -1.9355293512344360352f, -0.83563119173049926758f, 0.022238081321120262146f, 1.4511301517486572266f, 2.5558652877807617188f, 0.94064104557037353516f, -0.64369046688079833984f, 1.0331573486328125000f, -0.44997638463973999023f, -2.5468301773071289062f, -2.2161233425140380859f, -3.7271602153778076172f, -1.7060074806213378906f, -2.9430003166198730469f, 0.16110131144523620605f, -1.7448498010635375977f, -4.4236178398132324219f, -0.47956883907318115234f, 0.60595905780792236328f},
  {-0.25494870543479919434f, -0.17358537018299102783f, -0.089973770081996917725f, 0.37076529860496520996f, 0.15857133269309997559f, 0.15299589931964874268f, 0.069842666387557983398f, 0.012462466023862361908f, 0.056721769273281097412f, 0.93053913116455078125f, -0.18135465681552886963f, 0.031538225710391998291f, 0.20217937231063842773f, -0.088503293693065643311f, -0.074381276965141296387f, -0.015256881713867187500f, 0.44657889008522033691f, 0.040802367031574249268f, -0.21274536848068237305f, -0.18924832344055175781f},
  {0.0067047853954136371613f, -0.078669972717761993408f, 0.56576949357986450195f, 0.25884029269218444824f, 0.41481828689575195312f, 0.35130843520164489746f, -0.80352783203125000000f, -0.044920835644006729126f, 0.50370514392852783203f, -0.80958050489425659180f, 0.36447316408157348633f, 0.23402620851993560791f, -0.88248699903488159180f, -0.071222461760044097900f, -0.91964900493621826172f, -0.0021155835129320621490f, 0.066746294498443603516f, 1.3588749170303344727f, 0.0042412378825247287750f, 0.21794466674327850342f},
  {-0.083171151578426361084f, -0.25527560710906982422f, 0.42570686340332031250f, -0.23814724385738372803f, -0.49742755293846130371f, -0.046041090041399002075f, -0.37816795706748962402f, 0.055886197835206985474f, -0.059434726834297180176f, -0.59408187866210937500f, 0.36477822065353393555f, 0.16203974187374114990f, 0.061594102531671524048f, 0.21870934963226318359f, 0.25568652153015136719f, -0.25163364410400390625f, 0.18932959437370300293f, 0.18037448823451995850f, 0.26112884283065795898f, -0.044313937425613403320f},
  {-0.11590577661991119385f, -0.36179015040397644043f, -0.30302074551582336426f, -0.20517168939113616943f, 0.59051108360290527344f, 0.72629475593566894531f, 0.74175482988357543945f, -0.25011688470840454102f, -0.26446816325187683105f, 0.048276528716087341309f, -0.27225524187088012695f, -0.085019543766975402832f, 0.15917511284351348877f, 0.63799059391021728516f, -0.28152310848236083984f, -0.17002016305923461914f, 0.16102954745292663574f, 0.97486078739166259766f, -0.17111280560493469238f, -0.19309069216251373291f},
  {0.39135068655014038086f, -0.67977434396743774414f, -1.3410394191741943359f, -0.45338410139083862305f, -0.76881575584411621094f, -1.4308141469955444336f, -0.64663285017013549805f, 0.85667222738265991211f, -0.13710623979568481445f, 1.1885113716125488281f, 0.63942676782608032227f, -0.27353072166442871094f, 0.18139456212520599365f, 1.4507359266281127930f, 0.22589875757694244385f, 0.27017390727996826172f, 0.87207514047622680664f, 0.030796641483902931213f, 1.0474809408187866211f, 1.3404445648193359375f},
  {-0.16296240687370300293f, -0.029877375811338424683f, -1.1794106960296630859f, 0.30064851045608520508f, 1.6983394622802734375f, 0.27163928747177124023f, 0.69854766130447387695f, -0.28159183263778686523f, -0.020715489983558654785f, 0.57843017578125000000f, 1.1637066602706909180f, 1.6604834794998168945f, 1.2010041475296020508f, -1.0820394754409790039f, 0.37771207094192504883f, -0.61230921745300292969f, 0.25558435916900634766f, 0.55805420875549316406f, 0.70857965946197509766f, -0.32180756330490112305f},
  {-0.48233813047409057617f, -0.64309883117675781250f, -0.34048163890838623047f, -0.86496496200561523438f, -0.86424690485000610352f, 3.8414468765258789062f, -0.93764978647232055664f, -2.3558292388916015625f, -0.40089601278305053711f, -1.1167367696762084961f, -0.72982555627822875977f, -0.46045911312103271484f, 0.36465787887573242188f, -0.98824822902679443359f, -0.15294295549392700195f, -1.1530116796493530273f, -0.59749227762222290039f, -2.0329184532165527344f, -1.5714871883392333984f, -2.9272758960723876953f},
  {-2.7719457149505615234f, -2.2245595455169677734f, -2.4185376167297363281f, -2.1795763969421386719f, -2.7012908458709716797f, 7.9164667129516601562f, -2.0247337818145751953f, -2.7343153953552246094f, -2.9595239162445068359f, -2.2204737663269042969f, -2.2943568229675292969f, -2.5863301753997802734f, 2.1153099536895751953f, -2.3459837436676025391f, -2.0339610576629638672f, -2.6952605247497558594f, -1.5128068923950195312f, -0.97337931394577026367f, -2.9758303165435791016f, -2.6066839694976806641f},
  {-0.045397110283374786377f, 0.29507058858871459961f, -0.82655775547027587891f, 0.77918124198913574219f, -1.3377549648284912109f, 0.28997939825057983398f, 0.22774727642536163330f, -0.10135760903358459473f, 0.12793302536010742188f, 0.72384220361709594727f, -0.39502584934234619141f, -0.37822052836418151855f, -0.56173044443130493164f, -0.63149040937423706055f, -1.0785945653915405273f, 0.64871186017990112305f, -0.042126644402742385864f, -0.011444076895713806152f, -0.63064724206924438477f, 0.23378203809261322021f},
  {0.060726083815097808838f, -0.17559497058391571045f, 0.13854955136775970459f, -0.10414563119411468506f, 0.90657126903533935547f, 0.18135234713554382324f, 0.26225090026855468750f, -0.078683905303478240967f, 0.56370639801025390625f, -0.50482213497161865234f, 0.19791442155838012695f, 0.41916114091873168945f, -0.31940716505050659180f, -0.31062456965446472168f, -0.088815234601497650146f, 0.024281712248921394348f, 0.29236769676208496094f, -0.46578082442283630371f, 0.31414029002189636230f, -0.28865838050842285156f},
  {0.42673525214195251465f, -0.24563825130462646484f, 0.44312670826911926270f, 0.30852502584457397461f, -0.10425609350204467773f, 0.13514274358749389648f, -0.93791955709457397461f, -0.86553436517715454102f, 0.52564609050750732422f, -0.012368985451757907867f, 0.060501810163259506226f, -1.2577433586120605469f, 0.18569467961788177490f, -0.38256844878196716309f, -0.49137142300605773926f, -0.0048588234931230545044f, -0.47277760505676269531f, 0.31606513261795043945f, -0.37841513752937316895f, 0.14292855560779571533f},
  {-0.77636158466339111328f, -0.89970600605010986328f, -0.12098864465951919556f, 0.18256625533103942871f, -0.32851612567901611328f, 0.72559237480163574219f, -1.6728606224060058594f, -0.64485210180282592773f, 0.0085725020617246627808f, -0.16264884173870086670f, -0.24784575402736663818f, 0.0034204844851046800613f, 0.53383445739746093750f, 0.84918022155761718750f, -0.62593156099319458008f, -0.63666987419128417969f, -0.71386057138442993164f, 1.3699774742126464844f, 0.051236338913440704346f, -0.035476271063089370728f},
  {0.98684149980545043945f, -0.15925993025302886963f, 0.76248580217361450195f, -0.54301011562347412109f, 2.6919744014739990234f, -1.0767354965209960938f, 0.35971075296401977539f, 1.5236783027648925781f, -1.2407752275466918945f, 2.0676014423370361328f, 1.9872786998748779297f, -0.59087771177291870117f, 0.75942146778106689453f, 1.8895019292831420898f, 1.6439551115036010742f, 0.083623588085174560547f, -0.21958036720752716064f, 0.88422906398773193359f, 2.0928785800933837891f, 0.17982207238674163818f},
  {-0.20457637310028076172f, -0.74716180562973022461f, -0.64820349216461181641f, 0.10021501034498214722f, 0.50269734859466552734f, 1.5766944885253906250f, -3.0108203887939453125f, 0.094612628221511840820f, 0.20050154626369476318f, -0.15806676447391510010f, -0.19091269373893737793f, 0.058493390679359436035f, -0.51383763551712036133f, -2.4805064201354980469f, 0.26958221197128295898f, -0.41150662302970886230f, -0.075940907001495361328f, 0.23382003605365753174f, -0.22887802124023437500f, -0.42490357160568237305f},
  {-0.21525035798549652100f, -0.18292634189128875732f, 0.21974502503871917725f, -0.15534231066703796387f, 1.7387512922286987305f, -0.23681981861591339111f, 0.82670873403549194336f, -0.65689992904663085938f, -0.0030843808781355619431f, -0.025665426626801490784f, 0.46639701724052429199f, 1.3233956098556518555f, 0.78656935691833496094f, 0.82214438915252685547f, 2.3593261241912841797f, 0.089074641466140747070f, 0.11616946756839752197f, 2.1838014125823974609f, -0.032188322395086288452f, -0.058037105947732925415f},
  {0.34644553065299987793f, -0.038750458508729934692f, -1.8904205560684204102f, -1.2519015073776245117f, 1.2565697431564331055f, 3.6396567821502685547f, -1.5700420141220092773f, -1.5953453779220581055f, -0.72371995449066162109f, 1.2681668996810913086f, -3.0064630508422851562f, -1.2753930091857910156f, -2.5748729705810546875f, -1.5816519260406494141f, -4.3173136711120605469f, -1.7462795972824096680f, -0.14373853802680969238f, -1.9045832157135009766f, -0.53336524963378906250f, -2.5319025516510009766f},
  {-0.088135689496994018555f, 0.081823326647281646729f, 0.30344074964523315430f, 0.017637765035033226013f, -0.60078060626983642578f, -0.26513752341270446777f, -0.071376577019691467285f, -0.0095571801066398620605f, -0.58326065540313720703f, -0.69740527868270874023f, -0.48390090465545654297f, 0.091837368905544281006f, 0.49501365423202514648f, 0.46089503169059753418f, -1.0888850688934326172f, 0.12602393329143524170f, 0.25320327281951904297f, -0.50972247123718261719f, 0.058428503572940826416f, 0.048121940344572067261f},
  {0.036272305995225906372f, 0.10441818833351135254f, -0.25196883082389831543f, 0.0042989864014089107513f, -0.032328639179468154907f, 0.0055661546066403388977f, -0.89539068937301635742f, 0.17503200471401214600f, -0.13904078304767608643f, 0.19822926819324493408f, 0.23950244486331939697f, 0.057055748999118804932f, -0.25824245810508728027f, -0.20208315551280975342f, 0.19001184403896331787f, 0.10364180058240890503f, -0.10116484761238098145f, -0.14563776552677154541f, -0.30171394348144531250f, -0.13949826359748840332f},
  {0.14146094024181365967f, 0.035732343792915344238f, -1.4241002798080444336f, -0.10038117319345474243f, 0.35286766290664672852f, 0.12612511217594146729f, 0.48428779840469360352f, 0.13134962320327758789f, -0.79308217763900756836f, 0.023490715771913528442f, -2.2570903301239013672f, -1.3028349876403808594f, -0.23423235118389129639f, 0.70306646823883056641f, -1.8145990371704101562f, 0.38493373990058898926f, -0.42143937945365905762f, -1.0704287290573120117f, 0.45110449194908142090f, -0.23358798027038574219f},
  {-0.33057367801666259766f, 0.56341266632080078125f, 0.79024124145507812500f, 0.72488832473754882812f, -0.65574544668197631836f, 0.37526485323905944824f, 0.82981383800506591797f, -0.22118669748306274414f, -0.18920600414276123047f, 1.0075079202651977539f, -0.47633329033851623535f, 1.3123656511306762695f, -1.6454043388366699219f, -1.0660277605056762695f, 0.099354654550552368164f, -0.55202162265777587891f, 0.20512835681438446045f, 1.1083253622055053711f, 0.62233173847198486328f, 1.1704446077346801758f},
  {-0.26916533708572387695f, -0.62841206789016723633f, -0.23955567181110382080f, -2.2650249004364013672f, -0.73128312826156616211f, 1.6570508480072021484f, -1.3036855459213256836f, 0.52218043804168701172f, -0.26714175939559936523f, -1.5811319351196289062f, -1.4974083900451660156f, -3.8288846015930175781f, -3.1298451423645019531f, -3.8243064880371093750f, -3.1495161056518554688f, 0.31656381487846374512f, -2.1015183925628662109f, -2.0815687179565429688f, -0.24515974521636962891f, -0.061593078076839447021f},
  {-0.10532672703266143799f, 0.51561170816421508789f, -0.94006991386413574219f, 0.45453521609306335449f, 1.0420752763748168945f, -0.93106824159622192383f, -0.78347039222717285156f, 0.21541510522365570068f, 1.8325730562210083008f, 0.45293441414833068848f, 2.5186421871185302734f, 0.59874302148818969727f, 0.76166915893554687500f, -0.079643413424491882324f, 0.69206094741821289062f, -0.035119533538818359375f, 1.2934205532073974609f, 1.2870709896087646484f, -0.66932308673858642578f, 0.35775393247604370117f},
  {-0.078187331557273864746f, -0.019944133237004280090f, -0.28455096483230590820f, -0.11499876528978347778f, -1.1273555755615234375f, 0.26138144731521606445f, -0.59036558866500854492f, -0.32290613651275634766f, -0.80533468723297119141f, -0.93184071779251098633f, 0.63136094808578491211f, 0.60616874694824218750f, 0.33780863881111145020f, 0.18334989249706268311f, 0.60679870843887329102f, -0.16376836597919464111f, -0.36358955502510070801f, 0.055248726159334182739f, 0.26381623744964599609f, -0.33614382147789001465f},
  {-0.64955258369445800781f, 0.59914249181747436523f, -1.2380844354629516602f, 0.80626714229583740234f, -0.71631968021392822266f, -0.22893640398979187012f, -0.017894761636853218079f, -0.86071336269378662109f, 0.066314496099948883057f, -0.98219686746597290039f, -1.3204555511474609375f, -0.56207668781280517578f, 0.35593545436859130859f, 0.30062037706375122070f, 1.4326951503753662109f, 0.58662784099578857422f, 1.3881107568740844727f, -0.49263498187065124512f, 0.50660812854766845703f, -0.50926381349563598633f},
  {0.38633599877357482910f, 0.51358830928802490234f, 1.0499495267868041992f, 0.16100665926933288574f, -0.86060136556625366211f, -0.0070153838023543357849f, -0.81955635547637939453f, 0.54648411273956298828f, 0.12620440125465393066f, -0.063843198120594024658f, -0.59683871269226074219f, -0.92206960916519165039f, -0.51058351993560791016f, -0.19511139392852783203f, -1.5743094682693481445f, 0.037197571247816085815f, 0.60719114542007446289f, -1.3254858255386352539f, -0.34016013145446777344f, 0.10489514470100402832f},
  {0.20421895384788513184f, 0.10168005526065826416f, 1.4950802326202392578f, 0.079312905669212341309f, -0.50198948383331298828f, -0.40675029158592224121f, -1.8983882665634155273f, -1.2899345159530639648f, -0.54307699203491210938f, 1.2038443088531494141f, -0.53077137470245361328f, -1.2534878253936767578f, 3.4719450473785400391f, 1.2456616163253784180f, -0.73239600658416748047f, -0.081326365470886230469f, -0.36766573786735534668f, 0.98879158496856689453f, -1.0112352371215820312f, -0.93526095151901245117f},
  {-3.4209275245666503906f, -0.97585707902908325195f, -0.64070874452590942383f, -2.9397351741790771484f, 0.38824447989463806152f, 3.7426767349243164062f, -3.6093254089355468750f, -0.54019814729690551758f, -1.8689821958541870117f, -2.2908284664154052734f, -0.40285068750381469727f, 2.2849168777465820312f, -2.1475217342376708984f, -2.3796696662902832031f, -1.1039913892745971680f, -2.0561444759368896484f, -3.7129580974578857422f, 0.92594236135482788086f, 0.62210243940353393555f, 1.0398390293121337891f},
  {-0.0086273709312081336975f, 0.71910464763641357422f, -0.57381182909011840820f, -0.83306294679641723633f, 0.011245512403547763824f, -0.42795684933662414551f, 0.77643442153930664062f, -1.2575562000274658203f, -0.51242083311080932617f, 0.34899029135704040527f, 0.68308991193771362305f, -0.24415779113769531250f, 0.46992158889770507812f, 0.83537060022354125977f, -0.16817097365856170654f, 0.79327750205993652344f, -0.69086557626724243164f, 0.72951847314834594727f, -0.49277409911155700684f, 0.22895540297031402588f},
  {0.20674496889114379883f, 1.3979414701461791992f, 0.84680110216140747070f, -0.46322652697563171387f, 0.27960637211799621582f, -0.052115578204393386841f, 0.54715657234191894531f, 1.2008367776870727539f, 0.35459733009338378906f, -1.8424838781356811523f, 0.45434167981147766113f, -0.70935118198394775391f, 1.9982186555862426758f, 0.30484199523925781250f, -0.78258544206619262695f, -1.7786302566528320312f, 0.38214081525802612305f, 0.79682022333145141602f, -1.0065624713897705078f, -0.21050257980823516846f},
  {0.096668459475040435791f, -0.0082852030172944068909f, 0.091049268841743469238f, -0.29677966237068176270f, -0.20154792070388793945f, 0.017452070489525794983f, 0.21101635694503784180f, 0.061970259994268417358f, 0.30673652887344360352f, -0.44645184278488159180f, 0.13955679535865783691f, 0.25360149145126342773f, -0.083630487322807312012f, -0.059427365660667419434f, -0.70801496505737304688f, -0.11615872383117675781f, -0.21952760219573974609f, 0.20258848369121551514f, 0.067858934402465820312f, 0.014514708891510963440f},
  {0.29152998328208923340f, 0.11425146460533142090f, -0.14294873178005218506f, 0.13106721639633178711f, 0.20008872449398040771f, -0.22242915630340576172f, 0.20253179967403411865f, 0.24346956610679626465f, -0.20192991197109222412f, 0.015349799767136573792f, -0.24354845285415649414f, -0.73070001602172851562f, -2.1065165996551513672f, -1.0274146795272827148f, -0.49828401207923889160f, 0.25911420583724975586f, 0.63194358348846435547f, -1.0472741127014160156f, 0.23476499319076538086f, 0.24244138598442077637f},
  {0.20286095142364501953f, 0.097329236567020416260f, -0.15264138579368591309f, 0.026100588962435722351f, -0.92089277505874633789f, 0.21918842196464538574f, 0.12421625107526779175f, 0.57606059312820434570f, 0.34235927462577819824f, 0.87630176544189453125f, -0.82986217737197875977f, -1.5058259963989257812f, -2.1674387454986572266f, -2.0549137592315673828f, -0.12782509624958038330f, 0.085528858006000518799f, 0.051030412316322326660f, -0.94209176301956176758f, -1.0408000946044921875f, -0.42318546772003173828f},
  {0.30591243505477905273f, 0.10940808802843093872f, -0.0036499951966106891632f, -0.64181870222091674805f, -2.0995473861694335938f, 0.016848156228661537170f, 0.13526608049869537354f, 0.37747752666473388672f, -0.027310417965054512024f, 0.61884772777557373047f, 0.84206718206405639648f, 0.38612151145935058594f, -1.4311535358428955078f, -0.53924351930618286133f, 0.24023444950580596924f, 0.37647962570190429688f, -0.17377488315105438232f, 0.18831194937229156494f, 0.53823691606521606445f, 0.24176129698753356934f},
  {-0.014219511300325393677f, -0.62996053695678710938f, -0.12455362081527709961f, -0.35396015644073486328f, 3.4266629219055175781f, -0.50971710681915283203f, 1.0128364562988281250f, 0.42520076036453247070f, 0.86290431022644042969f, 1.6195776462554931641f, -0.18485303223133087158f, 0.89983201026916503906f, -0.15741856396198272705f, -0.31684747338294982910f, 2.2702474594116210938f, -0.76139670610427856445f, 0.12676548957824707031f, 2.7961275577545166016f, -0.072823643684387207031f, 0.49850824475288391113f},
  {-0.35847765207290649414f, -0.061729699373245239258f, 0.038513652980327606201f, 0.16716077923774719238f, -0.74014395475387573242f, 0.66061449050903320312f, 0.086222276091575622559f, -0.16611453890800476074f, 0.58301949501037597656f, 1.2010306119918823242f, 0.49123790860176086426f, -0.88284039497375488281f, -1.2680574655532836914f, -1.5270032882690429688f, -1.1816713809967041016f, -0.63843911886215209961f, -0.11715576052665710449f, -3.8905975818634033203f, 0.29655832052230834961f, 0.84999597072601318359f},
  {0.043598126620054244995f, 0.30380129814147949219f, -0.062657333910465240479f, -0.044141810387372970581f, -1.5889762639999389648f, 0.057364262640476226807f, -1.7215576171875000000f, 0.28358420729637145996f, -0.42172640562057495117f, 0.21723768115043640137f, 0.23956269025802612305f, 0.69089978933334350586f, -1.1882604360580444336f, -1.1743912696838378906f, 0.60106253623962402344f, 0.084039382636547088623f, -0.77562654018402099609f, -0.25202998518943786621f, 0.52281165122985839844f, 0.36535739898681640625f},
  {-0.093273915350437164307f, -0.25748819112777709961f, 1.8599246740341186523f, 0.20613369345664978027f, 1.0233596563339233398f, -0.32053512334823608398f, -0.14813141524791717529f, 0.023929178714752197266f, 0.53957700729370117188f, -0.65446096658706665039f, 0.10384543240070343018f, 0.21390727162361145020f, 5.2895984649658203125f, 3.6977536678314208984f, 0.63840961456298828125f, 0.085496544837951660156f, 0.87967842817306518555f, 0.39563679695129394531f, -0.12732852995395660400f, -0.38611361384391784668f},
  {0.59979808330535888672f, 0.24849724769592285156f, 0.093098625540733337402f, -0.66468882560729980469f, -0.63918393850326538086f, 0.14410209655761718750f, -0.68143379688262939453f, -0.65205127000808715820f, -0.29969844222068786621f, -0.80919796228408813477f, 0.47554057836532592773f, -0.42533090710639953613f, 0.67475974559783935547f, -0.65520030260086059570f, -0.52472513914108276367f, 0.51570451259613037109f, 0.060422442853450775146f, 0.19288541376590728760f, -0.43381786346435546875f, 0.38934049010276794434f},
  {1.0288337469100952148f, -0.94687050580978393555f, -0.53732830286026000977f, 0.16820982098579406738f, -0.28056272864341735840f, -2.2906279563903808594f, -0.58247423171997070312f, 1.1570545434951782227f, 0.89135414361953735352f, 1.2506389617919921875f, -0.22274886071681976318f, 1.2356628179550170898f, 1.5789433717727661133f, 1.2819154262542724609f, -0.27390396595001220703f, -0.080111302435398101807f, 0.89214628934860229492f, -0.88523852825164794922f, -0.019456323236227035522f, 0.0039646476507186889648f},
  {0.55061793327331542969f, 0.78586691617965698242f, -1.4073001146316528320f, -0.15796473622322082520f, 0.51956075429916381836f, -0.51195740699768066406f, -1.4452691078186035156f, -0.75516420602798461914f, -0.15112930536270141602f, -0.23341362178325653076f, 0.23443609476089477539f, -0.57644838094711303711f, 2.1591858863830566406f, -0.91179740428924560547f, 0.31857186555862426758f, 0.62429916858673095703f, 0.43004515767097473145f, -0.43401768803596496582f, -1.0820941925048828125f, 0.53053903579711914062f},
  {-0.010709074325859546661f, -0.39744767546653747559f, 1.0686383247375488281f, -0.79830956459045410156f, 0.97926741838455200195f, -0.77266550064086914062f, -0.077471956610679626465f, 0.64957064390182495117f, -0.34300887584686279297f, 0.12421740591526031494f, 1.3725454807281494141f, -0.32154011726379394531f, 3.9747412204742431641f, 2.0380873680114746094f, -0.15713831782341003418f, 0.072011701762676239014f, 0.43622052669525146484f, 2.3952555656433105469f, -0.52610450983047485352f, 1.0524564981460571289f},
  {1.8195400238037109375f, 0.11630290746688842773f, -0.49797961115837097168f, 0.96719932556152343750f, -0.49818578362464904785f, -1.0101232528686523438f, 1.8730778694152832031f, 0.14750467240810394287f, 1.3958463668823242188f, 0.023070653900504112244f, 0.34385666251182556152f, 0.13541847467422485352f, 0.69605004787445068359f, 0.49411681294441223145f, -0.017727252095937728882f, 0.89157402515411376953f, -1.3946398496627807617f, 0.37761723995208740234f, 1.1430301666259765625f, -2.1439645290374755859f},
  {-0.35320112109184265137f, 0.27209800481796264648f, -0.0049140518531203269958f, 0.22151616215705871582f, -0.93646794557571411133f, -0.069971926510334014893f, -2.8920195102691650391f, -0.51332455873489379883f, -0.55271691083908081055f, -0.29624980688095092773f, 0.38255259394645690918f, 0.62104880809783935547f, 0.038701035082340240479f, 0.84106510877609252930f, -0.34059378504753112793f, -0.61213833093643188477f, 0.14600975811481475830f, -0.90681064128875732422f, 0.072534538805484771729f, 0.17373988032341003418f},
  {-0.42025887966156005859f, 0.28263187408447265625f, -0.38621771335601806641f, -0.35834729671478271484f, -2.4211194515228271484f, 0.16412150859832763672f, -0.68041092157363891602f, 0.40134352445602416992f, -2.1796183586120605469f, -0.40664288401603698730f, 0.14979374408721923828f, -1.3697969913482666016f, -0.80210840702056884766f, 0.24959126114845275879f, 0.35563746094703674316f, 0.38972729444503784180f, -0.66448998451232910156f, -0.29114624857902526855f, 0.044928748160600662231f, 0.16512346267700195312f},
  {-1.1713199615478515625f, -0.46931299567222595215f, -0.89189571142196655273f, 0.95386290550231933594f, -0.26316750049591064453f, 0.035838481038808822632f, -0.42609125375747680664f, -0.93553352355957031250f, -1.7452871799468994141f, 0.79924070835113525391f, -0.43824440240859985352f, -0.76106607913970947266f, 0.40550154447555541992f, 0.11975472420454025269f, 1.0497016906738281250f, 1.2068995237350463867f, -0.29321923851966857910f, 0.059357605874538421631f, 1.0707262754440307617f, 0.72324913740158081055f},
  {-0.26639980077743530273f, 0.17830674350261688232f, -0.25337544083595275879f, -0.11075733602046966553f, -0.28125452995300292969f, -0.091844029724597930908f, -0.35280480980873107910f, 0.16271084547042846680f, 0.12763838469982147217f, -0.38900652527809143066f, 0.33538821339607238770f, 0.53029525279998779297f, 0.17897593975067138672f, -0.12125858664512634277f, 0.59791845083236694336f, -0.077018342912197113037f, -0.033073872327804565430f, 0.72993773221969604492f, 0.85916024446487426758f, 0.23814220726490020752f},
  {0.12429583817720413208f, 0.80535489320755004883f, 0.94849544763565063477f, 0.022957287728786468506f, -2.6212828159332275391f, -1.5552510023117065430f, -2.4216299057006835938f, 0.74340057373046875000f, 0.27457571029663085938f, 0.20402266085147857666f, 1.1676052808761596680f, 1.1260926723480224609f, 0.14020293951034545898f, -0.25543302297592163086f, 1.4723458290100097656f, 0.75752556324005126953f, 0.18058729171752929688f, -0.39189350605010986328f, -0.42537662386894226074f, 0.90317869186401367188f},
  {-0.15295428037643432617f, 0.18632455170154571533f, -1.4927726984024047852f, 0.61999905109405517578f, -4.3343849182128906250f, -0.74101364612579345703f, -1.2640163898468017578f, -1.0021007061004638672f, -0.59473729133605957031f, -0.87218397855758666992f, -3.8168518543243408203f, -2.4931919574737548828f, 2.3007218837738037109f, -1.3605480194091796875f, 1.3338140249252319336f, 0.78666263818740844727f, 0.22277331352233886719f, 0.47102415561676025391f, -0.21434518694877624512f, -0.37043648958206176758f},
  {-0.10530450195074081421f, -0.024814641103148460388f, 0.083446756005287170410f, 0.10754868388175964355f, -0.30962938070297241211f, -0.097451068460941314697f, 0.56060028076171875000f, -0.018117841333150863647f, 0.35134261846542358398f, 0.045934274792671203613f, -0.33052834868431091309f, -0.52596777677536010742f, 0.079030975699424743652f, -0.33254837989807128906f, -0.79165697097778320312f, 0.084580071270465850830f, 0.055419374257326126099f, -0.85439956188201904297f, -0.35438522696495056152f, -0.29696553945541381836f},
  {-1.0117928981781005859f, 2.1676108837127685547f, -0.84692686796188354492f, -0.51951813697814941406f, -2.3139071464538574219f, -1.0454617738723754883f, -2.9313135147094726562f, -0.65718334913253784180f, -0.73785012960433959961f, -3.1250705718994140625f, -0.16496118903160095215f, 0.22333502769470214844f, 0.55109483003616333008f, -0.58440828323364257812f, -1.2722051143646240234f, -0.056402828544378280640f, 0.89185136556625366211f, -0.59900069236755371094f, -2.0595903396606445312f, 0.68455427885055541992f},
  {-0.52152884006500244141f, -0.69659626483917236328f, 0.31128621101379394531f, -1.0828245878219604492f, -0.98862338066101074219f, 0.29617926478385925293f, -4.4975810050964355469f, 1.0731011629104614258f, -2.0688149929046630859f, -2.2732591629028320312f, 0.38849368691444396973f, 0.67101550102233886719f, 4.2109651565551757812f, -1.1794059276580810547f, -1.4536793231964111328f, -0.65948933362960815430f, -1.3637677431106567383f, 0.70945936441421508789f, 0.19463185966014862061f, 0.16055524349212646484f},
  {0.19362317025661468506f, -0.024500470608472824097f, -0.42171552777290344238f, -0.052876278758049011230f, -0.31826531887054443359f, -0.36648568511009216309f, -0.82384192943572998047f, 0.0059889196418225765228f, 0.16791994869709014893f, 0.30049282312393188477f, 0.97686445713043212891f, 0.016970153898000717163f, -0.48594114184379577637f, 0.37933850288391113281f, 0.19330599904060363770f, -0.015156663022935390472f, -0.22430534660816192627f, 0.088636040687561035156f, -0.062258563935756683350f, 0.025747900828719139099f},
  {-0.23142629861831665039f, 0.55754935741424560547f, -2.7630255222320556641f, -0.21454955637454986572f, -2.0419528484344482422f, 0.96408587694168090820f, -1.3659616708755493164f, -2.1826219558715820312f, -0.37513199448585510254f, 1.0627378225326538086f, 0.39920622110366821289f, 0.20982161164283752441f, -1.0300388336181640625f, -0.47413709759712219238f, 0.12807598710060119629f, 0.85069656372070312500f, -0.52778303623199462891f, -3.2162520885467529297f, -1.1481126546859741211f, -0.46673896908760070801f},
  {0.82345187664031982422f, 0.39929056167602539062f, 1.5569508075714111328f, 0.14406192302703857422f, 0.72987550497055053711f, -0.44588837027549743652f, 0.35340127348899841309f, 0.91657274961471557617f, 0.60948354005813598633f, -0.26713150739669799805f, -0.14737375080585479736f, -0.077089801430702209473f, -0.14558739960193634033f, -0.76088988780975341797f, -0.33199018239974975586f, 0.37871289253234863281f, -0.31237441301345825195f, 0.78059387207031250000f, -0.38314852118492126465f, 0.020936425775289535522f},
  {1.6025032997131347656f, 1.7728198766708374023f, -0.30074274539947509766f, 2.6115398406982421875f, 0.40041854977607727051f, -7.3435606956481933594f, -0.17270544171333312988f, 1.5532044172286987305f, 1.2678469419479370117f, 2.7059490680694580078f, 1.8329813480377197266f, 2.1794333457946777344f, -0.81780236959457397461f, 0.31618764996528625488f, -0.14447781443595886230f, 2.1625113487243652344f, 2.2814488410949707031f, -0.65079951286315917969f, 1.1959550380706787109f, 1.7357496023178100586f},
  {0.55157822370529174805f, 0.053843241184949874878f, -0.34559676051139831543f, -0.12313864380121231079f, -0.64154005050659179688f, 0.21010272204875946045f, -0.46378475427627563477f, 0.31218031048774719238f, 0.72505217790603637695f, 0.24546948075294494629f, -0.16394805908203125000f, 0.32330587506294250488f, -0.15522788465023040771f, -1.9108424186706542969f, -1.0034043788909912109f, 0.40454214811325073242f, -0.48233625292778015137f, -0.52422028779983520508f, -0.0091715846210718154907f, 0.062762245535850524902f},
  {-0.059915583580732345581f, 0.14202539622783660889f, -0.099590703845024108887f, 0.050037115812301635742f, -0.36623063683509826660f, 0.069045275449752807617f, -0.67977494001388549805f, -0.057382177561521530151f, 0.12867487967014312744f, 0.055590227246284484863f, -0.10143184661865234375f, -0.97989410161972045898f, -0.11099309474229812622f, 0.087308421730995178223f, 0.59870862960815429688f, 0.0046944408677518367767f, 0.11240328848361968994f, -1.4427639245986938477f, -0.18736852705478668213f, 0.14859987795352935791f},
  {-1.4159134626388549805f, -0.49469035863876342773f, -0.56526583433151245117f, -2.5715868473052978516f, -0.79895371198654174805f, 2.0637602806091308594f, -0.40628722310066223145f, -0.30953395366668701172f, -3.0657885074615478516f, -1.3709903955459594727f, -0.14855723083019256592f, -0.17288100719451904297f, -0.77145498991012573242f, 1.4897656440734863281f, 2.5381159782409667969f, -1.8159562349319458008f, -0.49177846312522888184f, -0.56417840719223022461f, -1.0499222278594970703f, 0.83547782897949218750f},
  {-0.68182861804962158203f, 0.20751500129699707031f, 0.57524794340133666992f, -0.41056668758392333984f, 1.3549510240554809570f, -0.12443792074918746948f, 0.18069811165332794189f, -0.024685742333531379700f, 0.26882064342498779297f, -0.25684052705764770508f, 2.1022946834564208984f, 2.0515568256378173828f, -0.34242993593215942383f, -0.54938113689422607422f, 0.62124228477478027344f, -0.33487060666084289551f, 0.19733111560344696045f, 0.23864080011844635010f, -0.17256335914134979248f, 0.17079798877239227295f},
  {-0.23395663499832153320f, 0.037152409553527832031f, 0.61120331287384033203f, -0.50719934701919555664f, -2.1598663330078125000f, 0.32256412506103515625f, -1.0267612934112548828f, -0.34521290659904479980f, -0.062384456396102905273f, -0.74590116739273071289f, 0.33733269572257995605f, -0.32861450314521789551f, 0.66474103927612304688f, 1.1438367366790771484f, -0.32975730299949645996f, -0.10938227176666259766f, -0.26522782444953918457f, 0.051715068519115447998f, 0.24725818634033203125f, 0.23174555599689483643f},
  {0.47556978464126586914f, 0.80780959129333496094f, 0.51182216405868530273f, -0.47287231683731079102f, 1.9691179990768432617f, -0.34837442636489868164f, 0.85477906465530395508f, -0.42778483033180236816f, 0.45026415586471557617f, 1.1296539306640625000f, 0.97996056079864501953f, 0.52921068668365478516f, -0.036333601921796798706f, -0.48195838928222656250f, 2.3048756122589111328f, 0.036253109574317932129f, 0.72167479991912841797f, 0.60604250431060791016f, -0.66657382249832153320f, 1.1237984895706176758f},
  {0.24151031672954559326f, -1.1316473484039306641f, 0.34783786535263061523f, -0.18411181867122650146f, 0.60932248830795288086f, -0.66360467672348022461f, 0.16491456329822540283f, 0.096082940697669982910f, 1.4358155727386474609f, 0.97839194536209106445f, 0.076229386031627655029f, -0.66949111223220825195f, 3.6200640201568603516f, 1.8219137191772460938f, 2.0823245048522949219f, -0.091287136077880859375f, -1.0804088115692138672f, -0.66388767957687377930f, 0.56758600473403930664f, -0.080505430698394775391f},
  {0.88876557350158691406f, -1.0671821832656860352f, -0.49344879388809204102f, 0.69049757719039916992f, -1.3558006286621093750f, 0.12967959046363830566f, -3.2220098972320556641f, 0.72981899976730346680f, 0.66907042264938354492f, -0.15549926459789276123f, -0.79999774694442749023f, -0.97403758764266967773f, -1.1524808406829833984f, 0.52842622995376586914f, 0.075331695377826690674f, -0.98626512289047241211f, 1.3605160713195800781f, -0.40454921126365661621f, -0.57867753505706787109f, 0.62654340267181396484f},
  {-0.67976564168930053711f, 0.24637445807456970215f, -0.51691246032714843750f, 0.56676727533340454102f, -0.58943259716033935547f, -0.25943461060523986816f, 0.66758853197097778320f, -0.61182337999343872070f, -0.37225672602653503418f, -0.17378121614456176758f, -0.34135729074478149414f, -0.63524001836776733398f, 0.63861602544784545898f, 0.18143136799335479736f, 0.79348748922348022461f, 0.37749564647674560547f, 0.50398951768875122070f, -1.1225758790969848633f, 0.91314858198165893555f, -0.46091273427009582520f},
  {-0.53897154331207275391f, 0.31314262747764587402f, 0.10224913805723190308f, -0.78283560276031494141f, -1.9340335130691528320f, -0.17281478643417358398f, -1.1839570999145507812f, -0.39237326383590698242f, 0.026268489658832550049f, -0.36342138051986694336f, 0.54218477010726928711f, 0.53841388225555419922f, -0.35549473762512207031f, 0.47577399015426635742f, 0.31872853636741638184f, -0.43940600752830505371f, 0.25959512591361999512f, 1.1033403873443603516f, 0.41067057847976684570f, 0.33329230546951293945f},
  {-0.41528013348579406738f, 0.81722152233123779297f, -0.39819562435150146484f, 0.028431408107280731201f, -0.41828584671020507812f, -0.46912050247192382812f, 0.12373716384172439575f, 0.54866659641265869141f, -0.72725099325180053711f, -0.98662459850311279297f, 0.077280320227146148682f, -0.91309189796447753906f, -1.1421743631362915039f, 0.40647509694099426270f, 2.1215980052947998047f, -0.33087238669395446777f, -0.63169455528259277344f, -0.65493941307067871094f, 1.2682555913925170898f, 0.72324407100677490234f},
  {0.24728912115097045898f, 0.22317503392696380615f, 0.27270880341529846191f, -0.020691754296422004700f, -0.87261515855789184570f, 0.26224759221076965332f, 0.33024591207504272461f, -0.49458804726600646973f, 0.25397202372550964355f, -0.19721347093582153320f, 0.44265529513359069824f, -1.1007750034332275391f, 0.56808841228485107422f, 0.57203739881515502930f, -0.57301771640777587891f, -0.38452661037445068359f, 0.20571798086166381836f, 1.0835720300674438477f, -1.6249978542327880859f, -0.45672851800918579102f},
  {1.1387034654617309570f, -0.35623735189437866211f, -0.87398415803909301758f, 0.11667494475841522217f, -0.17062005400657653809f, -0.092065520584583282471f, -0.81233936548233032227f, -0.30837744474411010742f, 1.4026622772216796875f, -0.63235914707183837891f, -0.59958440065383911133f, 0.97931730747222900391f, -1.1469122171401977539f, 0.14817959070205688477f, -0.56620234251022338867f, -0.014484833925962448120f, -0.24796625971794128418f, 0.19313709437847137451f, -0.54940944910049438477f, 0.075613334774971008301f},
  {-0.55028104782104492188f, -0.14074610173702239990f, -0.40872511267662048340f, -0.64256089925765991211f, -3.2310392856597900391f, 1.0328313112258911133f, -2.2344000339508056641f, -0.54895085096359252930f, -0.20188976824283599854f, -0.12948974967002868652f, -0.87501513957977294922f, -1.6338200569152832031f, 3.9539070129394531250f, -0.26818561553955078125f, -1.7603766918182373047f, -0.15063579380512237549f, -1.2828378677368164062f, 2.9155268669128417969f, -2.4438600540161132812f, -0.89158052206039428711f},
  {0.44698336720466613770f, 0.59720897674560546875f, -1.3193620443344116211f, -1.4411724805831909180f, 0.050817530602216720581f, -1.2621831893920898438f, 0.43415397405624389648f, 1.0652128458023071289f, -0.87683111429214477539f, 0.057936325669288635254f, 0.17495670914649963379f, 2.4305047988891601562f, 1.4918391704559326172f, 2.6084816455841064453f, 0.26294317841529846191f, 0.97624671459197998047f, -0.22448642551898956299f, 2.2935714721679687500f, 1.0328537225723266602f, 0.93139106035232543945f},
  {-0.032271392643451690674f, 0.10239999741315841675f, 0.55920392274856567383f, -0.0039258897304534912109f, -0.68273150920867919922f, -0.024080520495772361755f, -0.51767665147781372070f, 0.17410308122634887695f, 0.34584483504295349121f, 0.21663837134838104248f, 0.29738238453865051270f, 0.90645259618759155273f, -0.11604754626750946045f, 0.18754157423973083496f, 0.18877474963665008545f, 0.021401725709438323975f, -0.41197669506072998047f, 0.72666662931442260742f, 0.19164505600929260254f, 0.23811063170433044434f},
  {-0.41132476925849914551f, -0.20719203352928161621f, -0.91071140766143798828f, -0.12117843329906463623f, -0.092978104948997497559f, -0.079938672482967376709f, 2.2583575248718261719f, -0.33553239703178405762f, 0.63733553886413574219f, 1.5492751598358154297f, 1.2850046157836914062f, 0.24780547618865966797f, -0.54862582683563232422f, -0.63748341798782348633f, 1.7128731012344360352f, -0.75015085935592651367f, 1.0547887086868286133f, -0.58732277154922485352f, 1.2287977933883666992f, -0.049740329384803771973f},
  {1.1233624219894409180f, 1.5241725444793701172f, -0.12680310010910034180f, 1.3324311971664428711f, -2.0845212936401367188f, -4.1301984786987304688f, 0.95053428411483764648f, -0.31030839681625366211f, 1.6327189207077026367f, 1.6630111932754516602f, 0.23191131651401519775f, -0.64846873283386230469f, 3.3689720630645751953f, 1.6618485450744628906f, 1.7529660463333129883f, 1.1947046518325805664f, 0.48363739252090454102f, 0.77972638607025146484f, 2.3760492801666259766f, 2.7034082412719726562f},
  {0.024793520569801330566f, 0.22554816305637359619f, 0.69820940494537353516f, 1.7326002120971679688f, -0.11464329063892364502f, -2.9007041454315185547f, 1.2085921764373779297f, -0.047262135893106460571f, -1.1773607730865478516f, 0.12755583226680755615f, 0.35759803652763366699f, 1.5095324516296386719f, 0.032140497118234634399f, 0.32770860195159912109f, 0.33888155221939086914f, -0.054062478244304656982f, 0.89673751592636108398f, -0.21880197525024414062f, 0.21701467037200927734f, 1.1313228607177734375f},
  {0.59166002273559570312f, -0.27638858556747436523f, -0.64248448610305786133f, 0.54988282918930053711f, 0.78748947381973266602f, 0.033079545944929122925f, 0.14829941093921661377f, 0.72960942983627319336f, 1.0744202136993408203f, 0.98939406871795654297f, -1.1323764324188232422f, -1.3196878433227539062f, 0.060866843909025192261f, 0.28979444503784179688f, -1.6084036827087402344f, 0.67881232500076293945f, 0.82561504840850830078f, -0.78614747524261474609f, -1.3480618000030517578f, -1.6019053459167480469f},
  {-0.66481143236160278320f, 0.59838652610778808594f, -0.24212469160556793213f, -1.0195422172546386719f, -0.50124895572662353516f, -0.063141480088233947754f, -1.3057255744934082031f, -0.43311348557472229004f, -0.060419920831918716431f, 1.0952000617980957031f, 1.1433627605438232422f, 0.76665949821472167969f, -0.62098371982574462891f, -0.91112697124481201172f, 0.013714576140046119690f, -0.072596758604049682617f, 0.66924107074737548828f, -0.18212623894214630127f, 0.50214153528213500977f, 0.34158599376678466797f},
  {0.014616699889302253723f, 0.039397671818733215332f, 0.063979394733905792236f, -0.021892832592129707336f, -0.20788909494876861572f, -0.053214795887470245361f, 0.065570473670959472656f, 0.031746149063110351562f, 0.010804378427565097809f, 0.017561029642820358276f, 0.087130628526210784912f, 0.0034601993393152952194f, -0.065559171140193939209f, -0.18612495064735412598f, 0.26177424192428588867f, 0.028954168781638145447f, 0.071168296039104461670f, 0.26124542951583862305f, -0.035941433161497116089f, 0.045911803841590881348f},
  {-0.33526313304901123047f, 0.36369365453720092773f, 0.92215037345886230469f, -0.44681364297866821289f, -0.69572305679321289062f, -0.14801499247550964355f, -0.47390824556350708008f, 0.27521568536758422852f, -0.61866265535354614258f, -0.66005545854568481445f, 0.20449522137641906738f, 0.97935885190963745117f, -0.073357775807380676270f, -0.64031404256820678711f, 1.3412461280822753906f, -0.26366862654685974121f, -0.65746635198593139648f, 1.8880722522735595703f, 0.89456844329833984375f, 0.64441281557083129883f},
  {0.35493585467338562012f, -0.49879953265190124512f, -0.80903232097625732422f, 0.46633338928222656250f, 0.19986078143119812012f, -0.28918218612670898438f, -0.20439572632312774658f, 0.086696058511734008789f, 0.18593591451644897461f, -0.42212358117103576660f, 1.0070121288299560547f, 0.066677004098892211914f, -0.11820240318775177002f, -0.24567835032939910889f, 1.0125920772552490234f, -0.058974362909793853760f, -0.50822448730468750000f, -0.0067262598313391208649f, -0.19015540182590484619f, 0.53097963333129882812f},
  {-0.41506975889205932617f, 1.0164377689361572266f, -0.47749358415603637695f, 0.15238559246063232422f, 1.1091526746749877930f, -0.50220787525177001953f, 1.2554219961166381836f, -0.24112474918365478516f, 0.031233625486493110657f, 0.47494497895240783691f, 2.2753214836120605469f, 0.17183148860931396484f, 2.8941345214843750000f, 4.0076937675476074219f, 1.3100435733795166016f, -0.17753288149833679199f, 0.15488700568675994873f, 1.1568795442581176758f, -0.014893159270286560059f, 0.071323074400424957275f},
  {-0.31242907047271728516f, 0.013932922855019569397f, -2.8939099311828613281f, 0.53351807594299316406f, -0.043101299554109573364f, 0.34240463376045227051f, -0.19124278426170349121f, -1.5293885469436645508f, -0.25209212303161621094f, -0.65004569292068481445f, -0.34798651933670043945f, -0.76801276206970214844f, 0.33124336600303649902f, 0.29072406888008117676f, 0.51388478279113769531f, -0.45636409521102905273f, 0.41548851132392883301f, -1.6666151285171508789f, 0.15121108293533325195f, -0.64957934617996215820f},
  {0.80707830190658569336f, -0.51246088743209838867f, -0.33802366256713867188f, -1.1908735036849975586f, 1.0710027217864990234f, -0.37914624810218811035f, 0.91036409139633178711f, 0.55647069215774536133f, 0.48013988137245178223f, 0.98533880710601806641f, 0.14045968651771545410f, -0.091399610042572021484f, 1.2659921646118164062f, 0.73340946435928344727f, 0.34421974420547485352f, -0.54953014850616455078f, 0.58453917503356933594f, -1.4373208284378051758f, 0.20224258303642272949f, 0.035180617123842239380f},
  {-0.016356682404875755310f, -0.16492636501789093018f, 0.22160701453685760498f, -0.025721309706568717957f, 0.83822417259216308594f, 0.049500368535518646240f, 0.42511910200119018555f, 0.0012531437678262591362f, 0.46384167671203613281f, 0.10714197903871536255f, -0.025264225900173187256f, -0.18798506259918212891f, -0.23477695882320404053f, -0.22308124601840972900f, -0.23647409677505493164f, -0.040625028312206268311f, -0.097691923379898071289f, 0.51910734176635742188f, -0.24360679090023040771f, -0.071549817919731140137f},
  {0.54499113559722900391f, -0.23890590667724609375f, -2.0830261707305908203f, -0.083811268210411071777f, 0.40519708395004272461f, 0.21728110313415527344f, 0.22300167381763458252f, 0.59125119447708129883f, -0.10109598189592361450f, 1.0768319368362426758f, -1.3796913623809814453f, -1.1148489713668823242f, -0.56695014238357543945f, 0.049941077828407287598f, -0.91606014966964721680f, 0.27224010229110717773f, -0.014991630800068378448f, -0.73329746723175048828f, -0.28206601738929748535f, -1.0540879964828491211f},
  {0.53441941738128662109f, -0.21012660861015319824f, -0.46972444653511047363f, -1.3256562948226928711f, -0.098109856247901916504f, 0.74485433101654052734f, -3.2089612483978271484f, -0.082605756819248199463f, 0.76691770553588867188f, 0.84438246488571166992f, 0.91866099834442138672f, -0.69753473997116088867f, -4.6971068382263183594f, -1.9052944183349609375f, 0.88504087924957275391f, 0.44950756430625915527f, 0.033616118133068084717f, -0.15707907080650329590f, -0.28156051039695739746f, -0.38865426182746887207f},
  {0.67900913953781127930f, -1.0311764478683471680f, 0.034831184893846511841f, 0.40956753492355346680f, 0.71845978498458862305f, 0.14488284289836883545f, 0.87800914049148559570f, 0.92158591747283935547f, 1.6002223491668701172f, 0.88690030574798583984f, -1.3826836347579956055f, -0.90789169073104858398f, 0.12247824668884277344f, -1.6284600496292114258f, -0.31374511122703552246f, 0.99515402317047119141f, 0.44939979910850524902f, -0.77232319116592407227f, -1.2358510494232177734f, -0.88354963064193725586f},
  {2.2096230983734130859f, -0.71113717555999755859f, 0.98214161396026611328f, 1.7159121036529541016f, -0.88661855459213256836f, -2.7613465785980224609f, 0.34399724006652832031f, -0.30100849270820617676f, 2.5366196632385253906f, 2.0879423618316650391f, 1.5411527156829833984f, -1.1062494516372680664f, 3.2548766136169433594f, 1.2576739788055419922f, 1.2725019454956054688f, 0.084360860288143157959f, 3.2490279674530029297f, 1.8236529827117919922f, 1.1926733255386352539f, -0.43477705121040344238f},
  {0.45471969246864318848f, -0.32533341646194458008f, -0.31359806656837463379f, 0.50258630514144897461f, 2.0930111408233642578f, -0.017878716811537742615f, 1.6324852705001831055f, -0.19558483362197875977f, 1.1202931404113769531f, 1.5193650722503662109f, -0.93530535697937011719f, -1.3767384290695190430f, -0.15447723865509033203f, 0.37719798088073730469f, -1.1159391403198242188f, -0.078931301832199096680f, 1.7619128227233886719f, -1.4385924339294433594f, -1.1512639522552490234f, -0.79695343971252441406f},
  {0.61522758007049560547f, 0.31065872311592102051f, 1.3485110998153686523f, -0.20554701983928680420f, -0.77520823478698730469f, -0.24632044136524200439f, -0.37899389863014221191f, 1.1130219697952270508f, -0.34538635611534118652f, -0.31684526801109313965f, 0.77115482091903686523f, -0.63354140520095825195f, -0.28798976540565490723f, -0.83425199985504150391f, -0.85766696929931640625f, 0.36883139610290527344f, -0.20605343580245971680f, 0.75314056873321533203f, -0.15292668342590332031f, 1.0055543184280395508f},
  {-0.56557577848434448242f, -0.54448300600051879883f, -1.6876505613327026367f, -0.026023466140031814575f, -0.60197192430496215820f, 0.98747366666793823242f, -2.0853648185729980469f, -0.64102035760879516602f, -0.080516003072261810303f, 0.19996415078639984131f, -0.25325462222099304199f, -0.35607624053955078125f, 0.75968390703201293945f, 1.1739047765731811523f, -1.1894314289093017578f, -0.21174383163452148438f, 0.14175114035606384277f, -2.1502375602722167969f, -0.20718285441398620605f, -0.35965558886528015137f},
  {-0.31015720963478088379f, 0.18677540123462677002f, -0.026211965829133987427f, -0.18630395829677581787f, -0.41559031605720520020f, 0.25009766221046447754f, 0.16363900899887084961f, -0.061132550239562988281f, -0.068799614906311035156f, -0.70452129840850830078f, 0.52727705240249633789f, 0.26443973183631896973f, 0.018388999626040458679f, 0.17791625857353210449f, 0.53544503450393676758f, -0.073870770633220672607f, -0.070739023387432098389f, 0.60105246305465698242f, 0.25704964995384216309f, -0.42924690246582031250f},
  {0.10195291042327880859f, -0.0097866347059607505798f, -1.0804456472396850586f, -0.20901744067668914795f, -0.78696238994598388672f, 0.11889950186014175415f, 0.55748480558395385742f, -0.043014723807573318481f, -0.048990055918693542480f, -0.51984399557113647461f, 0.33220365643501281738f, 0.29945734143257141113f, -1.3248181343078613281f, 0.29542890191078186035f, 0.36158204078674316406f, 0.56951344013214111328f, -0.92045474052429199219f, 0.20955061912536621094f, -0.044020339846611022949f, -0.64035642147064208984f},
  {0.018029322847723960876f, 0.41068491339683532715f, -0.090818285942077636719f, 0.12508657574653625488f, -1.1501719951629638672f, -0.12992374598979949951f, -0.59237247705459594727f, 0.36421644687652587891f, 0.37701785564422607422f, -0.77201002836227416992f, -0.35130545496940612793f, -0.89262050390243530273f, 0.39471584558486938477f, 0.17577396333217620850f, -0.92036372423171997070f, -0.15519167482852935791f, -0.40660598874092102051f, -0.17640854418277740479f, -0.17081455886363983154f, -0.25170761346817016602f},
  {-1.3309241533279418945f, -1.6026654243469238281f, -0.70344835519790649414f, -0.16615939140319824219f, -0.18286706507205963135f, 4.0703010559082031250f, -1.8587527275085449219f, -1.3820732831954956055f, -1.5966072082519531250f, -2.5070061683654785156f, 0.61737138032913208008f, -3.0553612709045410156f, -1.6681821346282958984f, -0.55536621809005737305f, 0.32952147722244262695f, -1.8273776769638061523f, -0.42878639698028564453f, -1.7141976356506347656f, 0.25141957402229309082f, -0.62977516651153564453f},
  {-0.40727180242538452148f, -0.88257694244384765625f, 1.1419442892074584961f, 0.55713403224945068359f, 1.6542674303054809570f, -1.1451656818389892578f, 2.1032829284667968750f, 0.55115938186645507812f, -0.39723205566406250000f, 1.2651693820953369141f, -0.56671077013015747070f, 1.7382670640945434570f, 0.85612601041793823242f, -0.041827909648418426514f, -0.052129905670881271362f, 0.73716026544570922852f, -0.20036801695823669434f, -0.81810975074768066406f, -0.52724868059158325195f, -0.058989189565181732178f},
  {-0.013047414831817150116f, 2.6305148601531982422f, 1.2540321350097656250f, 1.3991744518280029297f, 1.9090771675109863281f, -4.7447671890258789062f, 1.3869102001190185547f, 1.1880122423171997070f, 1.8543672561645507812f, 1.3875157833099365234f, 1.3315089941024780273f, 2.4093375205993652344f, -0.68547880649566650391f, 0.59808295965194702148f, 1.5025401115417480469f, 2.1127064228057861328f, 2.8777883052825927734f, 1.6907641887664794922f, 0.77174925804138183594f, 5.2797312736511230469f},
  {-0.53876554965972900391f, -0.33564195036888122559f, -1.8969724178314208984f, -0.59810805320739746094f, 1.9206682443618774414f, 2.0816068649291992188f, -0.022249195724725723267f, 0.076841272413730621338f, -1.2388072013854980469f, -0.40227520465850830078f, -0.56447356939315795898f, -0.43227028846740722656f, -0.68201524019241333008f, -1.3316543102264404297f, -1.3101948499679565430f, -1.3342524766921997070f, 0.11759297549724578857f, -0.57121378183364868164f, 0.40158572793006896973f, -0.35728660225868225098f},
  {0.63445442914962768555f, 0.98227494955062866211f, 0.56970191001892089844f, 1.0387356281280517578f, -1.6814591884613037109f, -3.1388032436370849609f, 1.1927736997604370117f, 0.49386996030807495117f, 0.83803749084472656250f, 0.030544005334377288818f, 0.91747695207595825195f, 1.5333716869354248047f, 1.3917220830917358398f, -1.2511584758758544922f, 2.1517364978790283203f, 0.44024205207824707031f, 0.85380715131759643555f, 1.6332392692565917969f, 0.38968715071678161621f, 1.0782343149185180664f},
  {0.015081623569130897522f, 0.15534125268459320068f, 0.31149107217788696289f, 0.052780304104089736938f, -0.51331043243408203125f, -0.24606530368328094482f, -0.30796682834625244141f, 0.088104605674743652344f, 0.10451743006706237793f, 0.48871573805809020996f, -0.026582855731248855591f, 0.74640893936157226562f, 0.48232194781303405762f, -0.21716444194316864014f, 0.78145986795425415039f, 0.080023102462291717529f, -0.32104563713073730469f, -0.10461669415235519409f, 0.22278003394603729248f, 0.061804175376892089844f},
  {0.19114723801612854004f, -0.15827997028827667236f, -0.25778377056121826172f, -0.0060739051550626754761f, -1.0359163284301757812f, 0.38093468546867370605f, 1.2358946800231933594f, 0.10365711152553558350f, -0.14056882262229919434f, 0.78371942043304443359f, -0.090496301651000976562f, 0.55831146240234375000f, -0.79584914445877075195f, -0.10045247524976730347f, 0.14990042150020599365f, -0.0059202490374445915222f, 0.097778007388114929199f, -0.41468980908393859863f, -0.017992481589317321777f, 0.47003006935119628906f},
  {-0.055550530552864074707f, -0.40138471126556396484f, -0.95363253355026245117f, 0.017606275156140327454f, 1.8581398725509643555f, -0.00073904520832002162933f, 1.7134628295898437500f, -0.38861235976219177246f, -0.072913996875286102295f, 0.97839635610580444336f, -0.24956406652927398682f, 0.72744470834732055664f, 0.34434464573860168457f, -0.023258456960320472717f, 0.14168427884578704834f, -0.28772345185279846191f, 1.0219845771789550781f, 3.0923445224761962891f, -0.048858836293220520020f, -0.34868565201759338379f},
  {0.16699631512165069580f, -0.091882400214672088623f, 1.1416960954666137695f, -0.28492116928100585938f, -0.69862419366836547852f, -0.26382762193679809570f, -0.58938872814178466797f, 0.13239297270774841309f, 0.36824727058410644531f, -0.024593254551291465759f, -0.079655013978481292725f, 0.022622810676693916321f, 0.30211105942726135254f, 0.35632663965225219727f, -0.38111194968223571777f, -0.28877234458923339844f, -0.17635615170001983643f, 0.58836281299591064453f, -0.49888935685157775879f, 0.51411437988281250000f},
  {1.1000670194625854492f, 3.1261966796591877937e-05f, -0.074362345039844512939f, -0.93742859363555908203f, -1.9577653408050537109f, -0.033337816596031188965f, 0.81796556711196899414f, -0.042572755366563796997f, -1.0226155519485473633f, 0.75138294696807861328f, -1.4073892831802368164f, -0.86976504325866699219f, -0.078321762382984161377f, 0.19063332676887512207f, -0.99150002002716064453f, 0.094213843345642089844f, -0.11766558140516281128f, 0.95494490861892700195f, 0.89205962419509887695f, 1.0757639408111572266f},
  {1.0551539659500122070f, 0.81183356046676635742f, 1.1202366352081298828f, -1.7504727840423583984f, -1.2182979583740234375f, 0.63168740272521972656f, -0.23496082425117492676f, 0.43168342113494873047f, -1.5741716623306274414f, -2.1338922977447509766f, 0.76467615365982055664f, -0.24614782631397247314f, -2.2462043762207031250f, -0.33143961429595947266f, -0.96954166889190673828f, 0.77804678678512573242f, -1.3778345584869384766f, 0.20643536746501922607f, 1.0380737781524658203f, 0.48780471086502075195f},
  {-0.32875350117683410645f, -0.72896021604537963867f, -0.77860546112060546875f, 0.19338868558406829834f, 1.0316289663314819336f, -0.17104454338550567627f, 0.77010542154312133789f, -0.61622244119644165039f, 0.52072852849960327148f, 0.47479459643363952637f, 0.14883413910865783691f, 1.2215493917465209961f, 0.25581377744674682617f, 0.16862873733043670654f, 1.0363537073135375977f, -0.90600001811981201172f, 0.33244955539703369141f, 0.047545477747917175293f, 0.15791243314743041992f, -0.19779402017593383789f},
  {-1.0891096591949462891f, -2.8751263618469238281f, -4.3058142662048339844f, -0.49366444349288940430f, -2.2576539516448974609f, 3.1654012203216552734f, -2.9556586742401123047f, -1.1204429864883422852f, 0.81884992122650146484f, -2.0780105590820312500f, -1.6372979879379272461f, -1.3761433362960815430f, -0.65552544593811035156f, -2.0957150459289550781f, 2.8603799343109130859f, -0.40324437618255615234f, -0.89079868793487548828f, -2.7657809257507324219f, 1.0280125141143798828f, -1.6052503585815429688f},
  {-0.081783898174762725830f, 0.43133708834648132324f, -0.82820147275924682617f, 0.45025822520256042480f, 1.0340142250061035156f, 0.19988851249217987061f, 0.84403532743453979492f, -0.069909423589706420898f, 0.64898049831390380859f, -1.4364088773727416992f, -0.35173106193542480469f, -1.2441231012344360352f, -0.45155492424964904785f, 0.93830740451812744141f, -0.30608269572257995605f, 0.47617149353027343750f, 0.64571899175643920898f, 0.082669571042060852051f, -0.78806704282760620117f, -0.66849517822265625000f},
  {-0.078843154013156890869f, -0.29256904125213623047f, 1.0034816265106201172f, -0.44500929117202758789f, 1.0020865201950073242f, 0.10825919359922409058f, 1.2617728710174560547f, -0.091782547533512115479f, 0.063171662390232086182f, -0.28463447093963623047f, -0.33971831202507019043f, 0.23939490318298339844f, 0.74952769279479980469f, 0.56722509860992431641f, -0.86647570133209228516f, -0.069088697433471679688f, -0.00076242588693276047707f, -0.25263908505439758301f, 0.81670093536376953125f, -0.20075912773609161377f},
  {0.74404871463775634766f, 0.51249307394027709961f, 0.32693850994110107422f, 0.76440066099166870117f, 0.30567595362663269043f, -1.0055314302444458008f, -3.4680466651916503906f, 0.76172786951065063477f, 0.73270696401596069336f, -0.40716063976287841797f, 0.42268747091293334961f, 0.44987699389457702637f, -2.8516991138458251953f, -1.1555840969085693359f, -0.37210667133331298828f, 0.60862165689468383789f, 0.46033015847206115723f, 0.27044489979743957520f, 1.2068718671798706055f, 0.26129913330078125000f},
  {-0.10909219086170196533f, 0.052811287343502044678f, -0.23488989472389221191f, 0.71276265382766723633f, 1.7343230247497558594f, -1.0346276760101318359f, 1.8765856027603149414f, -0.35434794425964355469f, 0.57070404291152954102f, 0.94509470462799072266f, 0.37160006165504455566f, 1.2136127948760986328f, 2.1449553966522216797f, -1.0939286947250366211f, 2.7933979034423828125f, -0.21327230334281921387f, 1.5356034040451049805f, 3.0041298866271972656f, 1.2217867374420166016f, -0.49510008096694946289f},
  {-0.23371444642543792725f, -0.073030486702919006348f, -0.95994603633880615234f, -0.32875788211822509766f, -0.12947100400924682617f, 0.90935158729553222656f, 0.17342576384544372559f, 0.29127368330955505371f, -0.58127105236053466797f, -1.0350723266601562500f, 0.19121852517127990723f, 0.30875900387763977051f, 0.029276087880134582520f, -0.21537525951862335205f, 0.80704092979431152344f, -0.45207956433296203613f, -0.42562371492385864258f, -0.062952533364295959473f, -0.063833080232143402100f, 0.68328708410263061523f},
  {-2.6933188438415527344f, -0.85823941230773925781f, -3.4618439674377441406f, -1.2292662858963012695f, 0.63489377498626708984f, 6.1271166801452636719f, 0.20496201515197753906f, -1.2472025156021118164f, -1.6440433263778686523f, -1.0215657949447631836f, -1.8322474956512451172f, -1.8141648769378662109f, -4.4488410949707031250f, -0.18353989720344543457f, -1.0868140459060668945f, -1.6411240100860595703f, -0.99380499124526977539f, -1.7980225086212158203f, -0.90566766262054443359f, -0.95442259311676025391f},
  {-0.18429665267467498779f, -0.51773834228515625000f, 0.48088964819908142090f, -0.23712235689163208008f, 0.28564137220382690430f, -0.18070772290229797363f, 0.10980997234582901001f, -0.15714775025844573975f, -0.31643596291542053223f, -0.0012592695420607924461f, 0.96901684999465942383f, 0.018844865262508392334f, 0.11228140443563461304f, 0.19380474090576171875f, 0.87795871496200561523f, -0.16188888251781463623f, -0.032251730561256408691f, 0.49593576788902282715f, -0.081845551729202270508f, 0.27299550175666809082f},
  {0.40848356485366821289f, 0.36761111021041870117f, -1.0183814764022827148f, 0.56115078926086425781f, 1.5553671121597290039f, -0.82514494657516479492f, 0.59177327156066894531f, 0.78670251369476318359f, -0.077013760805130004883f, -0.019801620393991470337f, -1.1474157571792602539f, -0.73704880475997924805f, 0.10241185128688812256f, 0.19501243531703948975f, -1.7248293161392211914f, 0.68244278430938720703f, 0.65561962127685546875f, 0.11887794733047485352f, -0.32143926620483398438f, -0.46763321757316589355f},
  {0.23935911059379577637f, -0.056553952395915985107f, 0.21627688407897949219f, -0.31790554523468017578f, -1.1243407726287841797f, 0.20294393599033355713f, -1.2216140031814575195f, 0.40684756636619567871f, 0.51260179281234741211f, -0.090253822505474090576f, -0.70361268520355224609f, -0.25513803958892822266f, -0.30751314759254455566f, 0.22128711640834808350f, 1.0215018987655639648f, 0.66527092456817626953f, -0.23230482637882232666f, 0.17807325720787048340f, -0.038639768958091735840f, -0.056980978697538375854f},
  {-0.055886507034301757812f, 0.27254721522331237793f, -1.1442824602127075195f, -0.41593647003173828125f, -1.1860049962997436523f, 0.017398139461874961853f, -1.0027027130126953125f, 0.37299680709838867188f, -0.35049778223037719727f, 0.0021010963246226310730f, 0.094897307455539703369f, -0.56570470333099365234f, -0.0062831561081111431122f, 0.063142880797386169434f, -1.0177931785583496094f, 0.21391648054122924805f, 0.085227400064468383789f, 0.050903446972370147705f, -0.93179601430892944336f, 0.17638111114501953125f},
  {0.079423390328884124756f, -0.64554119110107421875f, 0.25213032960891723633f, -0.050642628222703933716f, 0.58275973796844482422f, 0.21908380091190338135f, -0.31821393966674804688f, -0.44080993533134460449f, 0.41416531801223754883f, 0.67336869239807128906f, 0.0025387478526681661606f, 1.1430608034133911133f, 0.039212901145219802856f, 1.8006403446197509766f, 0.48414865136146545410f, -0.46891936659812927246f, -0.62078577280044555664f, -0.70293015241622924805f, -0.012976240366697311401f, 0.16312158107757568359f},
  {-0.15307055413722991943f, 0.047575712203979492188f, -0.090168401598930358887f, -0.17092444002628326416f, 0.0082621583715081214905f, 0.098082609474658966064f, 0.71219033002853393555f, -0.083836384117603302002f, -0.00059271242935210466385f, -0.73750811815261840820f, 0.24106670916080474854f, 0.26871764659881591797f, -0.61363852024078369141f, -0.52309846878051757812f, 0.16811741888523101807f, -0.18836972117424011230f, 0.085712514817714691162f, -0.44358813762664794922f, 0.21859392523765563965f, 0.17943952977657318115f},
  {-0.038397200405597686768f, -0.089074641466140747070f, -0.67741948366165161133f, 0.00035160340485163033009f, 0.29366058111190795898f, 0.091246627271175384521f, -0.080264247953891754150f, 0.032278966158628463745f, 0.17738668620586395264f, 0.50514823198318481445f, -1.1257830858230590820f, -0.83605158329010009766f, 0.27766641974449157715f, 0.16521978378295898438f, -1.2439181804656982422f, -0.0087744062766432762146f, 0.21703769266605377197f, 0.44283947348594665527f, -0.71651041507720947266f, -0.00087498128414154052734f},
  {0.16272275149822235107f, -0.16757969558238983154f, 0.65502727031707763672f, -0.20855304598808288574f, -0.37717333436012268066f, 0.32009291648864746094f, -1.3111582994461059570f, -0.088040985167026519775f, -0.17309379577636718750f, -0.53328001499176025391f, -0.23197814822196960449f, -0.43693158030509948730f, 1.0142494440078735352f, 0.31879210472106933594f, -0.82611644268035888672f, -0.12402233481407165527f, -0.63855510950088500977f, -0.10205645114183425903f, -0.30189216136932373047f, -0.12809401750564575195f},
  {-0.098762370645999908447f, -0.19319118559360504150f, 0.62843465805053710938f, -0.017726514488458633423f, -0.090692445635795593262f, -0.077945381402969360352f, 1.5115413665771484375f, -0.11769261956214904785f, 0.39788773655891418457f, -0.0033601999748498201370f, -0.44120141863822937012f, -0.14733694493770599365f, 0.013427874073386192322f, -0.19578488171100616455f, -0.0067823762074112892151f, 0.035843838006258010864f, 0.30179724097251892090f, -0.78628796339035034180f, -0.10911967605352401733f, -0.30748251080513000488f},
  {0.68710911273956298828f, -0.20523552596569061279f, -0.82698523998260498047f, -0.48751980066299438477f, -0.023169670253992080688f, -0.074218049645423889160f, -0.49769756197929382324f, 0.50254219770431518555f, 0.90965187549591064453f, -0.49678987264633178711f, -0.18407534062862396240f, 0.93458205461502075195f, -1.6210335493087768555f, 0.075722143054008483887f, -0.16555657982826232910f, -0.42710825800895690918f, 0.85165822505950927734f, -0.62258404493331909180f, 0.012070505879819393158f, 0.18277633190155029297f},
  {1.2370272874832153320f, -0.39438924193382263184f, -0.088958859443664550781f, 0.12991710007190704346f, 2.4683661460876464844f, -1.4502341747283935547f, 2.3702738285064697266f, 1.2017316818237304688f, 0.87683904170989990234f, 0.78493183851242065430f, -0.63031017780303955078f, -0.76011329889297485352f, 0.31336751580238342285f, 0.029821177944540977478f, -0.78658103942871093750f, 0.015906848013401031494f, 0.18637374043464660645f, 0.063467442989349365234f, -0.079227969050407409668f, 1.2850270271301269531f},
  {-2.3250184059143066406f, -2.2966969013214111328f, -2.4635913372039794922f, -3.0834853649139404297f, -2.0843162536621093750f, 8.6527652740478515625f, -2.1631669998168945312f, -3.2952067852020263672f, -2.9357800483703613281f, -1.5361167192459106445f, -2.2863037586212158203f, -2.9256668090820312500f, -4.3477458953857421875f, -2.4462382793426513672f, -2.0146257877349853516f, -2.2350175380706787109f, -1.9244841337203979492f, -2.5713605880737304688f, -2.3774850368499755859f, -2.4388422966003417969f},
  {-1.3551290035247802734f, -1.5142139196395874023f, -1.1183217763900756836f, 1.2611240148544311523f, -2.2226409912109375000f, 0.29478719830513000488f, 1.9265173673629760742f, -0.29001992940902709961f, -0.50954508781433105469f, -0.43443080782890319824f, 0.25452587008476257324f, 0.40695494413375854492f, -0.20153796672821044922f, 0.050730254501104354858f, -0.78165096044540405273f, 0.63987302780151367188f, -0.55754417181015014648f, -0.77093464136123657227f, 0.29136222600936889648f, 1.3635706901550292969f},
  {0.43167218565940856934f, -3.0514364242553710938f, -3.3310871124267578125f, 0.74829840660095214844f, -0.81309008598327636719f, 1.5317919254302978516f, 0.76856118440628051758f, -1.7031868696212768555f, 0.57652670145034790039f, -0.36674067378044128418f, 0.33719220757484436035f, -0.27255484461784362793f, -2.0462291240692138672f, -2.3796868324279785156f, -4.0291948318481445312f, -0.79847538471221923828f, 0.27528512477874755859f, -1.5114921331405639648f, -1.7046910524368286133f, -3.6483914852142333984f},
  {1.1888896226882934570f, -0.85726386308670043945f, 0.12533724308013916016f, 1.1435788869857788086f, -0.12774284183979034424f, -0.47184285521507263184f, -0.28941532969474792480f, 0.36355894804000854492f, -0.37352129817008972168f, 0.28758394718170166016f, 0.35534617304801940918f, -0.15839074552059173584f, -0.85272800922393798828f, -0.093131132423877716064f, -0.32007855176925659180f, 0.39887124300003051758f, 0.16332973539829254150f, -1.2224770784378051758f, 0.43744161725044250488f, 0.16565270721912384033f},
  {-0.75073319673538208008f, 0.18581920862197875977f, 0.49149423837661743164f, -1.3532811403274536133f, -1.6550363302230834961f, 1.4767177104949951172f, -2.4647946357727050781f, -0.61701202392578125000f, -3.3843758106231689453f, -1.6673499345779418945f, -0.31596475839614868164f, 0.40860596299171447754f, -3.9293115139007568359f, -3.3885078430175781250f, -1.0921248197555541992f, -0.21394924819469451904f, -0.092407308518886566162f, -0.16202986240386962891f, -1.5688692331314086914f, 1.2202972173690795898f}
};
static const float tensor_dense_bias_0[20] = 
{0.87840169668197631836f, 0.71838265657424926758f, -2.2045965194702148438f, 0.71661019325256347656f, -3.2506289482116699219f, 1.1360507011413574219f, -3.1398537158966064453f, 0.56134408712387084961f, -0.57097965478897094727f, -1.4634786844253540039f, -1.6043199300765991211f, -1.9436266422271728516f, -1.3780695199966430664f, -1.0534411668777465820f, -2.7341210842132568359f, 0.91948014497756958008f, -0.47833031415939331055f, -2.8268229961395263672f, -0.51026701927185058594f, 0.036769203841686248779f};
static const float tensor_lstm_W[1][656][20] = 
{
  {
    {-0.89336913824081420898f, -0.35773688554763793945f, 0.86818283796310424805f, 0.19481283426284790039f, -2.2260129451751708984f, 0.12923949956893920898f, 0.45455452799797058105f, 0.57539880275726318359f, 0.35291644930839538574f, -0.95109397172927856445f, -0.30155646800994873047f, 0.51366800069808959961f, -2.6063168048858642578f, 0.58573752641677856445f, 0.87430739402770996094f, -0.13684111833572387695f, -0.043228771537542343140f, 0.83330333232879638672f, 0.75323152542114257812f, -1.2983214855194091797f},
    {0.20285515487194061279f, -0.35861262679100036621f, -0.050779558718204498291f, -0.97485512495040893555f, 0.57419461011886596680f, 0.56216067075729370117f, 1.0486969947814941406f, -0.37846302986145019531f, -0.11298933625221252441f, -0.20139800012111663818f, -1.4938009977340698242f, -0.57106155157089233398f, 1.4765194654464721680f, -2.1677691936492919922f, -0.47427245974540710449f, -1.3747969865798950195f, -1.1660822629928588867f, 0.10443504154682159424f, 0.32544627785682678223f, -0.072910100221633911133f},
    {-0.13990655541419982910f, 0.087962701916694641113f, -0.071186996996402740479f, -0.26719331741333007812f, -1.2997568845748901367f, 1.1920570135116577148f, -0.57086944580078125000f, -1.4307001829147338867f, 0.98501133918762207031f, 1.0921351909637451172f, -0.73316967487335205078f, -0.10700728744268417358f, -0.53832775354385375977f, -0.31199252605438232422f, -2.4518532752990722656f, -1.1121573448181152344f, -0.59059703350067138672f, 0.072971813380718231201f, -0.42052337527275085449f, 0.26622182130813598633f},
    {0.91164183616638183594f, 0.25169596076011657715f, 1.5574854612350463867f, -1.2770162820816040039f, -1.3882480859756469727f, -0.083105430006980895996f, 1.4809265136718750000f, 0.26309767365455627441f, 2.0609018802642822266f, -0.12853889167308807373f, -1.5503504276275634766f, -0.48595139384269714355f, -0.17879971861839294434f, 0.31571114063262939453f, 0.91692107915878295898f, -0.25470480322837829590f, -0.52651411294937133789f, 3.1734838485717773438f, -0.69723051786422729492f, -0.58512198925018310547f},
    {0.37648519873619079590f, -0.087064631283283233643f, 1.0726484060287475586f, -0.13764142990112304688f, 1.2404091358184814453f, -1.1478586196899414062f, 1.7001246213912963867f, -0.29773312807083129883f, 0.45750725269317626953f, 0.71873635053634643555f, -0.96579450368881225586f, 0.32883998751640319824f, -1.2832317352294921875f, -0.26677823066711425781f, 1.3041732311248779297f, 0.32560902833938598633f, 0.39237546920776367188f, 5.1427373886108398438f, -0.64250725507736206055f, 0.31733983755111694336f},
    {-0.0030793142504990100861f, 1.9025067090988159180f, 0.95185762643814086914f, 3.2428703308105468750f, 0.26749780774116516113f, -2.4633002281188964844f, 0.42197719216346740723f, 1.2799514532089233398f, -1.2708839178085327148f, 4.2404923439025878906f, 1.0496162176132202148f, 1.2282710075378417969f, 0.18804557621479034424f, 1.3820142745971679688f, 2.3215537071228027344f, 2.3127257823944091797f, 2.3580961227416992188f, -0.039987977594137191772f, 0.76617676019668579102f, 1.6407357454299926758f},
    {1.8588330745697021484f, 1.3752542734146118164f, 1.5289356708526611328f, 1.4847962856292724609f, 1.4812759160995483398f, -1.6842368841171264648f, 1.9171894788742065430f, 1.8089314699172973633f, 0.52397447824478149414f, 1.7643406391143798828f, 1.3862164020538330078f, 0.89277696609497070312f, 0.019727699458599090576f, 0.17761361598968505859f, -0.53622829914093017578f, 1.0454467535018920898f, 2.2243571281433105469f, 0.0019053349969908595085f, 1.7768867015838623047f, 1.6599478721618652344f},
    {2.0377089977264404297f, 1.7439423799514770508f, -0.36529907584190368652f, 0.23741890490055084229f, 0.54888302087783813477f, -0.54590445756912231445f, 2.1367025375366210938f, -0.0091275982558727264404f, -0.042043484747409820557f, -0.63293820619583129883f, 1.4070634841918945312f, -0.026105707511305809021f, -2.0167436599731445312f, 0.88923364877700805664f, 3.4265935420989990234f, 0.64918696880340576172f, 1.1918860673904418945f, 2.0059225559234619141f, 1.1626120805740356445f, -1.3365744352340698242f},
    {-1.6362149715423583984f, -0.58596849441528320312f, 0.56806880235671997070f, 0.096717618405818939209f, 2.1130590438842773438f, -0.21223039925098419189f, 2.5392301082611083984f, 0.10280993580818176270f, 1.0211151838302612305f, -0.56213849782943725586f, -0.66046601533889770508f, -0.044273149222135543823f, 0.80851852893829345703f, 0.97886335849761962891f, 0.082650147378444671631f, -0.95270568132400512695f, -0.63163959980010986328f, -0.15129652619361877441f, -0.45129439234733581543f, -2.3375706672668457031f},
    {-0.50555473566055297852f, 1.1870465278625488281f, 0.20969831943511962891f, -1.4311408996582031250f, -0.35712864995002746582f, -0.017833320423960685730f, -0.054235484451055526733f, -2.7009036540985107422f, -0.15511344373226165771f, -0.92415207624435424805f, -1.8291038274765014648f, 0.47271227836608886719f, -0.45255354046821594238f, 0.22442774474620819092f, -0.43048855662345886230f, -0.82506477832794189453f, -0.87602257728576660156f, 0.066793464124202728271f, 0.38001596927642822266f, 1.0462471246719360352f},
    {-0.39182239770889282227f, 0.17261527478694915771f, -0.73866820335388183594f, -1.9004777669906616211f, 0.21581161022186279297f, -0.061184685677289962769f, -0.00032904397812671959400f, -0.59455800056457519531f, -1.1927564144134521484f, 0.58666211366653442383f, -0.072397671639919281006f, 0.15330265462398529053f, 0.17210043966770172119f, -1.2816563844680786133f, 2.6955535411834716797f, 0.28061157464981079102f, -1.9585418701171875000f, 1.6422051191329956055f, 0.90651947259902954102f, 0.31244608759880065918f},
    {-1.0589325428009033203f, -1.3183445930480957031f, 0.59108996391296386719f, 0.43371137976646423340f, -0.19598761200904846191f, -0.56223362684249877930f, 2.2355120182037353516f, -2.1807332038879394531f, -1.1266621351242065430f, 0.036933355033397674561f, -0.62242490053176879883f, 1.8740491867065429688f, 0.75061136484146118164f, 0.23315611481666564941f, 1.7527092695236206055f, -0.044688072055578231812f, -0.059978734701871871948f, 1.5458832979202270508f, 1.6928204298019409180f, -0.74748927354812622070f},
    {-1.1228188276290893555f, -0.069219745695590972900f, 0.30168613791465759277f, -0.20475013554096221924f, -1.7215856313705444336f, 0.11098526418209075928f, 0.081639930605888366699f, -0.38789889216423034668f, 0.23647771775722503662f, 0.51910275220870971680f, -0.25443014502525329590f, -1.0374698638916015625f, -1.6456656455993652344f, 1.4918766021728515625f, 3.4686286449432373047f, 0.058879457414150238037f, -0.97256582975387573242f, 1.2110816240310668945f, -0.15089008212089538574f, -0.61666345596313476562f},
    {-0.27114939689636230469f, -0.93483471870422363281f, 1.8413954973220825195f, -0.17671115696430206299f, 0.37269645929336547852f, -0.41581377387046813965f, 1.6093895435333251953f, -1.1457479000091552734f, 1.0693188905715942383f, -0.58335930109024047852f, 0.37091735005378723145f, 1.1965264081954956055f, -0.22968031466007232666f, 0.84369206428527832031f, -0.79038053750991821289f, -0.19552130997180938721f, 0.19670639932155609131f, -0.0082396939396858215332f, 0.21319259703159332275f, 1.3102265596389770508f},
    {-0.84663850069046020508f, -0.62605410814285278320f, -0.39148119091987609863f, 0.80910712480545043945f, -0.68841695785522460938f, -0.024370590224862098694f, 0.36402478814125061035f, 0.30582386255264282227f, 0.84494376182556152344f, -0.80457752943038940430f, -1.2207506895065307617f, 0.18011568486690521240f, -0.42228487133979797363f, 0.027108469977974891663f, 0.93231904506683349609f, 0.091414786875247955322f, -0.29272967576980590820f, 1.9707400798797607422f, 1.0360655784606933594f, 0.21398478746414184570f},
    {-1.0850651264190673828f, 0.073494680225849151611f, 1.2905632257461547852f, -0.55331796407699584961f, 0.25340783596038818359f, -0.16531287133693695068f, 0.77526235580444335938f, 0.30813270807266235352f, -0.84339231252670288086f, -0.17164234817028045654f, -0.0074941222555935382843f, 1.8574935197830200195f, 0.33901795744895935059f, 0.026194190606474876404f, 1.0422531366348266602f, -0.76961934566497802734f, 1.2712153196334838867f, 0.49052581191062927246f, -0.62004756927490234375f, 1.7189738750457763672f},
    {-0.0052302223630249500275f, -0.60939824581146240234f, -0.34868273138999938965f, -0.087990596890449523926f, -0.097944930195808410645f, 0.77978217601776123047f, -1.3201115131378173828f, -1.5917496681213378906f, -0.84091895818710327148f, -2.3082909584045410156f, -1.4843245744705200195f, -0.75325804948806762695f, -0.29134395718574523926f, -0.51768100261688232422f, -0.49053901433944702148f, -3.2328000068664550781f, -1.4359906911849975586f, -2.7202177047729492188f, -2.3380837440490722656f, -3.7331087589263916016f},
    {0.49863380193710327148f, -0.027386300265789031982f, 2.3866174221038818359f, 0.23049740493297576904f, 0.059025201946496963501f, 0.13721546530723571777f, 0.90942430496215820312f, -0.83788812160491943359f, 0.61460602283477783203f, 1.1130018234252929688f, -0.35085004568099975586f, 1.0384688377380371094f, -0.77519369125366210938f, 0.44376549124717712402f, -0.97361057996749877930f, -0.87937641143798828125f, 0.12179096788167953491f, -0.15494941174983978271f, -0.56555545330047607422f, 0.53376507759094238281f},
    {0.025309558957815170288f, -0.31308913230895996094f, -2.1739110946655273438f, -0.43853074312210083008f, -0.39928758144378662109f, -0.20803166925907135010f, 0.44619989395141601562f, -0.99314892292022705078f, 0.65396982431411743164f, -0.89969563484191894531f, -0.69564706087112426758f, 0.072200641036033630371f, 0.79811728000640869141f, 1.8654822111129760742f, 0.42654532194137573242f, 0.42803445458412170410f, -0.44687074422836303711f, 0.43054059147834777832f, 1.1031188964843750000f, 0.42954209446907043457f},
    {-0.60019236803054809570f, 1.0995891094207763672f, 0.35667103528976440430f, -0.28280982375144958496f, -0.69466400146484375000f, 0.13836024701595306396f, -0.75081735849380493164f, -1.0238996744155883789f, 1.8095587491989135742f, -0.69045287370681762695f, -2.0947048664093017578f, -1.1424517631530761719f, 0.21766991913318634033f, 1.6041920185089111328f, 0.13821400701999664307f, -0.58274966478347778320f, 1.3619723320007324219f, 2.1890406608581542969f, -0.79587620496749877930f, -0.0066011967137455940247f},
    {1.0953812599182128906f, 1.1690200567245483398f, 0.81403446197509765625f, 1.8760218620300292969f, 2.6982805728912353516f, -0.12122276425361633301f, -1.0307127237319946289f, 0.10883870720863342285f, 0.0056674475781619548798f, 1.0803189277648925781f, 0.58305388689041137695f, -1.4216703176498413086f, -3.9725885391235351562f, -1.2515176534652709961f, -0.63380324840545654297f, 0.41543197631835937500f, -0.38672739267349243164f, 0.10220944881439208984f, 1.5326306819915771484f, 0.57744646072387695312f},
    {-0.14313142001628875732f, 0.30153757333755493164f, -0.44297924637794494629f, 0.51418632268905639648f, 0.079377911984920501709f, -0.43798944354057312012f, 1.5489227771759033203f, -0.28595361113548278809f, -0.098177067935466766357f, -0.29955503344535827637f, 0.42216253280639648438f, 0.14761285483837127686f, 0.26159945130348205566f, 0.89154005050659179688f, 0.026940446346998214722f, 0.045638717710971832275f, 0.19706925749778747559f, -1.3892920017242431641f, -0.29743191599845886230f, -0.87857645750045776367f},
    {-1.2567006349563598633f, 0.64080512523651123047f, -2.2869884967803955078f, 0.24178045988082885742f, -0.93498963117599487305f, -0.73437392711639404297f, 3.3522562980651855469f, -0.18186600506305694580f, 0.33865818381309509277f, -0.51875251531600952148f, -0.94672673940658569336f, -0.72779363393783569336f, -0.12649241089820861816f, -0.86642122268676757812f, -0.18249188363552093506f, -0.36185243725776672363f, -0.88548380136489868164f, 0.68813955783843994141f, 0.96159142255783081055f, -0.11548007279634475708f},
    {1.5525584220886230469f, -1.1730933189392089844f, 6.4644970893859863281f, 0.26679974794387817383f, 0.31338533759117126465f, -1.0577952861785888672f, 0.75324457883834838867f, 0.27841714024543762207f, 0.35032683610916137695f, 4.6594285964965820312f, 1.0790122747421264648f, 1.3278076648712158203f, -0.19319960474967956543f, 0.16309864819049835205f, 1.3767255544662475586f, 0.33956488966941833496f, 3.1876554489135742188f, 0.44274643063545227051f, 0.58841812610626220703f, 2.3747115135192871094f},
    {-0.77272665500640869141f, -1.3670395612716674805f, -0.20822784304618835449f, -0.78616827726364135742f, -0.45588719844818115234f, 0.63302433490753173828f, -0.15616685152053833008f, 0.74374306201934814453f, -0.15632985532283782959f, -1.7025631666183471680f, -1.4365371465682983398f, -0.59691345691680908203f, 2.0791852474212646484f, -0.41278088092803955078f, -0.29684028029441833496f, 0.37212508916854858398f, -0.36616009473800659180f, -0.62522947788238525391f, 0.65621268749237060547f, -1.8924202919006347656f},
    {-0.16252706944942474365f, -1.5957106351852416992f, 0.66388291120529174805f, 0.44190722703933715820f, 1.5702605247497558594f, -0.85486769676208496094f, 0.35676574707031250000f, 1.8657307624816894531f, 0.92367571592330932617f, -0.14748869836330413818f, -0.032904870808124542236f, 2.5769026279449462891f, -0.52975785732269287109f, -0.85874056816101074219f, -1.1265767812728881836f, 0.26682180166244506836f, 1.2392858266830444336f, 1.2424341440200805664f, -1.0292215347290039062f, 0.62980282306671142578f},
    {1.4966454505920410156f, 0.32248321175575256348f, 0.63432955741882324219f, 0.21662075817584991455f, 1.0987806320190429688f, -0.15237164497375488281f, -1.0993978977203369141f, 0.31663158535957336426f, 1.5089818239212036133f, 0.91544878482818603516f, 0.37961393594741821289f, 0.47475516796112060547f, 0.81955486536026000977f, -0.76610976457595825195f, -0.66753834486007690430f, 0.29725900292396545410f, 3.7653594017028808594f, -0.55280518531799316406f, 1.6916716098785400391f, 0.064303092658519744873f},
    {2.6420967578887939453f, 0.62784653902053833008f, 1.8239301443099975586f, -0.34762999415397644043f, -2.3831398487091064453f, -1.2131493091583251953f, 0.29027044773101806641f, 0.88088542222976684570f, 0.86579591035842895508f, -1.5452969074249267578f, 0.40666976571083068848f, 2.6659202575683593750f, 0.020613465458154678345f, -0.43185806274414062500f, -0.88952839374542236328f, 1.8902133703231811523f, -0.028369538486003875732f, -1.9193480014801025391f, 1.6324338912963867188f, 0.0075320308096706867218f},
    {1.7088675498962402344f, -0.60810291767120361328f, 1.6934463977813720703f, -0.51843816041946411133f, 0.79097753763198852539f, -0.76787239313125610352f, -1.7592138051986694336f, 0.91258263587951660156f, 0.34706455469131469727f, 0.89617115259170532227f, 1.0064431428909301758f, 2.1765134334564208984f, -0.039643272757530212402f, 2.1411588191986083984f, 3.0210754871368408203f, 1.2445249557495117188f, 0.87891334295272827148f, -0.55344331264495849609f, 1.0610995292663574219f, 1.4411987066268920898f},
